<P> 0.0641540630979 -0.0638086331592 0.0581978737588 0.178541385175 0.157346164959 -0.170993635272 0.179188150129 -0.163966857639 0.138273926873 -0.138013323105 -0.191805025636 -0.0930922430473 -0.198228114064 0.0256947768179 -0.109973649756 0.0166453828174 0.184895084164 -0.0215050189029 0.0810097390495 0.13998981317 -0.0717897905299 0.209736665265 0.206226365388 0.191657201166 -0.0761577005767 0.1223036895 0.126995859849 0.139652864123 0.0032998979469 0.0933153111569 0.000394102323374 0.0379565725998 0.0815417248637 -0.0837094962943 -0.200666308568 -0.0141274517163 0.14021585615 -0.187667473617 0.064959699933 0.0659884228955 0.0413988636726 0.16002461179 -0.135126929148 -0.165093799554 -0.0723434332478 0.176133763307 -0.083622710558 0.0733175839373 0.00754805570504 -0.0759496591345 -0.157340843316 0.142748907294 0.20473128637 0.0101582874037 -0.0657512707647 0.203165201527 0.211299329749 -0.0243897263691 -0.00684740893887 0.0727041678513 0.129986771616 0.0757590519347 0.0649701591351 0.110520883634
<UNK> -0.0138229881223 -0.206116782312 0.155415215606 0.0472732729688 -0.0266992944988 0.0504245445391 -0.0196182585918 0.0625185778414 -0.0142200394414 -0.169678071196 0.0619272460866 0.208895443438 0.0328494794816 0.124238379237 0.157646613104 -0.163724358392 0.0783116461969 0.00446003917353 -0.166217882793 0.0302763974994 0.177946623079 -0.156800315915 -0.0407434274492 0.111941303764 0.148986690834 0.148672704669 -0.211767125691 -0.0366980916732 0.0126629104167 0.181360384219 -0.131864871858 -0.198589429743 0.205369827364 0.191823110485 0.129953012495 -0.0713860492121 -0.187221907252 -0.0580096188083 0.159956692677 0.0486284210171 -0.0634417962938 -0.0481197284847 -0.120422294334 0.201032806537 0.18671380098 -0.206955465415 0.189881004533 0.193891377458 -0.00302438052244 0.132999755469 0.126802837778 0.124700915724 0.160179137846 0.00694101012434 0.0184732951513 -0.131190197089 -0.0680854007502 -0.125989661083 -0.144992544954 0.0955148131943 -0.00437015515218 -0.0376788740821 0.193690128133 -0.0300211534386
<NUM> 0.171708 -0.056303 -0.059614 0.123934 -0.115438 -0.525595 0.270495 -0.033161 0.288022 -0.495058 1.04472 0.554554 0.121653 0.084438 0.341463 0.077415 0.084917 -0.348008 -0.168937 -0.611904 -0.45071 0.60255 -0.312853 -0.06395 0.28929 -0.447549 0.078283 0.536443 0.086885 0.356084 -0.565236 -0.121134 -0.222582 0.137609 0.901504 -0.462122 -1.47293 0.193445 -0.296278 -0.155849 1.03686 -1.11964 0.01015 -0.073136 0.818465 0.173133 -0.915583 0.320953 0.510404 0.218541 0.300202 0.741923 0.672597 0.242325 -0.101635 0.323245 0.492458 -0.352719 -0.595294 -0.046967 -0.033205 -0.36557 0.292486 -0.167481
<FW> -0.101029288461 -0.00469653917143 0.108341848015 -0.110728266922 -0.0921361015741 0.185963299866 -0.0970618247871 -0.0359554840984 -0.162891429996 0.0171801905132 -0.0347183221299 0.176832906529 -0.113710634787 0.0685218246546 -0.132296933188 -0.182065538106 -0.0255701422983 -0.131300755967 -0.0720625217995 -0.173447332471 0.0330750917483 -0.0305414837705 -0.0937252073245 -0.176265640062 0.0774764702106 -0.0678534213703 -0.00414411183512 0.0407138802239 0.065315513835 -0.120810792486 -0.124772254685 -0.0819634722376 0.0220975718913 0.13115952838 0.00828643696271 -0.127111225318 0.215042736963 0.0285346306388 0.206028522907 0.0299768128221 -0.126175342748 -0.0820228106045 0.0434233368443 0.128825275285 0.0115264104475 -0.0143825630527 0.031574335754 0.0788916225582 -0.0374137983926 0.186912340918 -0.0135552805968 -0.0574286945003 0.112447645036 0.0905603893474 -0.0256214294424 0.0215628254883 0.120426009165 0.0695258590091 0.0349518242361 0.185636002008 0.161901870123 -0.199007855946 0.214049313186 0.0960422911199
耀 0.657909 0.74022 0.651068 -0.189125 0.087258 0.458493 -0.052743 0.371843 -0.11383 0.169547 0.426793 -0.418918 0.289352 0.561456 0.191605 -0.50499 0.12322 -0.64386 0.338687 0.190501 -0.202962 0.054439 -0.027329 0.335904 -0.416836 -0.58332 -0.656622 -0.222166 -0.454455 0.021385 -0.325237 0.535695 0.143554 0.551747 -0.19209 -0.595612 0.174953 -0.024543 0.615333 0.065899 0.035353 0.599886 -0.472847 0.037523 -0.780434 -0.059266 -1.01923 0.013668 -0.035334 0.46907 -0.252911 -0.258168 -0.056901 -0.439994 0.336981 -0.20027 0.076082 0.483551 0.014011 -0.104905 0.026128 -0.064305 -0.194233 0.623235
挂 0.41236 -0.064912 0.290946 0.205045 -0.373251 0.054269 -0.294515 -0.367144 0.414432 0.14739 0.306548 0.885915 -0.075955 0.351685 0.072593 -0.225472 -0.127478 -0.379206 -0.292953 0.260767 0.36662 -0.247415 -0.03905 -0.071717 0.436017 0.339665 -0.234006 0.16919 -0.094047 -0.160507 -0.169162 -0.54655 0.434076 0.131359 0.539597 3e-06 0.045961 -0.196587 0.101885 0.173092 -0.009998 -0.090298 -0.105415 0.02869 -0.006957 0.633829 0.370385 0.115055 -0.218448 -0.157379 -0.721868 0.151216 -0.346467 -0.816113 0.403793 0.106926 -0.436932 -0.301427 -0.129472 0.112687 -0.133023 0.218446 -0.093359 0.157515
怀 0.323936 -0.133964 -0.018248 0.116122 -0.231047 -0.057769 -0.000518 -0.044072 0.378843 0.273266 0.245473 0.171248 -0.73249 0.390624 -0.406417 -0.371375 -0.282431 -0.202331 0.628057 -0.292569 0.093708 0.157133 0.170949 0.419873 0.090857 -0.389262 -0.649964 -0.350159 -0.018436 0.216585 0.627369 0.311779 0.182005 -0.197533 -0.035374 -0.052981 -0.125392 0.145645 0.204573 -0.25303 -0.230656 0.150765 -0.193653 -0.399542 0.010847 -0.065382 0.186979 -0.281794 -0.449734 0.347971 -0.576112 0.60919 0.06331 0.109517 -0.224396 -0.050939 0.047998 0.910683 0.142009 -0.68126 0.17035 -0.412421 -0.282496 -0.005191
涉 -0.535351 0.293666 -0.326199 -0.193158 0.416416 -0.30785 0.023433 -0.03855 0.716438 -0.087681 -0.196128 -0.038294 0.19348 -0.160774 -0.130785 -0.507391 -0.120637 -0.002443 0.200579 -0.474441 0.687803 -0.432877 0.168549 -0.516299 -0.022551 -0.198304 0.445692 0.021028 -0.172332 -0.020028 -0.058631 0.228579 0.044646 -0.143089 0.934663 0.297995 0.030766 -0.101211 0.528906 -0.187153 -0.081199 -0.106973 0.248715 -0.295781 -0.266554 0.450441 0.453524 -0.286465 0.125074 0.321861 -0.389596 0.353153 -0.275594 -0.280188 0.026537 -0.130614 0.017482 0.336368 -0.24782 -0.104297 -0.231221 -0.022332 -0.240512 -0.588614
谈 -0.185293 0.276596 0.265051 -0.199124 0.144678 0.186147 0.26941 -0.018049 0.072352 0.391721 -0.591072 0.56297 0.272605 0.16017 -0.204338 0.32607 -0.371311 0.713924 0.081264 -0.194717 0.372907 0.043239 0.009138 0.467002 0.243317 -0.263952 0.58814 -0.263777 0.107307 -0.061589 0.504592 -0.431226 0.146823 0.061543 0.574287 0.083651 0.204078 0.306733 -0.357875 -0.328415 -0.098804 0.052801 -0.394059 -0.610792 -0.073068 0.019857 -0.383005 -0.230625 -0.368249 -0.118299 -0.238852 -0.119126 0.602666 0.309769 -0.24535 -0.336797 -0.063481 0.163808 -0.445428 -0.154214 -0.125004 -0.090764 0.259046 0.151687
邋 0.320691 0.294743 -0.13633 0.398121 -0.440231 0.212829 -0.411496 0.243485 0.806303 0.259202 -0.255953 -0.319597 -0.136809 0.34207 -0.831124 -0.843009 -0.295048 0.261085 0.221921 -0.284741 0.052293 0.054589 0.040968 0.381286 -0.731177 0.274304 0.338803 0.136478 0.822283 0.142958 0.805036 -0.73207 -0.299864 -0.475994 -1.20802 1.00404 0.093682 0.574201 0.693777 -0.502704 0.098952 -0.00087 -0.421436 0.360915 -0.009201 0.137504 -0.305357 1.10951 -0.168805 -0.945579 0.214761 -0.216406 -0.329405 0.120062 0.367993 0.429381 -0.480401 0.781476 -0.109179 0.737786 0.488081 0.094142 0.047953 0.423662
伊 -0.364829 0.147071 -0.201205 -0.00568 -0.448284 -0.185119 -0.240706 0.092233 -0.05413 -0.191811 0.653854 -0.18099 -0.271582 0.08669 -0.086819 0.280297 -0.065135 -0.070904 0.150856 -0.640819 -0.237637 0.062954 -0.13244 0.508728 0.174249 0.090682 0.592998 0.127657 0.524285 -0.084168 0.413616 0.213899 0.227537 -0.004896 -0.192775 0.057657 -0.131379 0.260663 -0.4395 -0.087078 -0.21328 -0.471044 0.274838 0.033694 -0.212054 -0.77922 0.121394 0.289912 -0.431739 0.611416 -0.072045 0.286813 -0.472429 -0.316691 -0.732993 -0.088714 0.07077 0.398171 0.208513 0.250378 -0.621431 -0.10701 -0.502995 -0.601222
随 0.179337 0.298766 0.232971 0.290785 0.379236 -0.017794 0.150542 0.150644 -0.002775 0.12794 0.36473 0.067688 -0.259522 0.024619 -0.043853 -0.163452 0.046812 0.064814 0.222324 -0.175917 0.062195 0.35074 0.147238 0.093168 0.049414 -0.037534 -0.07525 -0.198498 0.51306 -0.253936 -0.078492 0.001421 -0.012276 -0.130064 0.574301 -0.436608 0.096708 0.361053 0.037301 -0.006606 0.064249 0.202777 0.22867 0.17134 -0.110194 0.142824 0.251542 -0.107765 -0.286666 -0.080413 -0.182888 0.496113 -0.080719 0.375897 -0.144362 0.076896 0.121206 0.009791 0.440504 -0.063633 -0.125325 0.132547 0.576827 -0.351711
茂 0.519056 0.030496 0.207906 -1.04139 0.021716 -0.37852 -0.366979 0.526991 -0.353491 -0.001554 0.299866 -0.038314 0.026424 0.23516 -0.043355 -0.18007 -0.347869 0.050746 0.208285 -0.24491 0.189388 -0.0635 0.430354 0.018106 -0.228211 -0.047492 -0.094397 -0.030304 -0.276322 0.078878 -0.190653 -0.255937 0.336017 -0.049882 -0.421459 -0.099435 -0.304872 -0.186616 0.675744 0.236412 -0.114656 0.261319 -0.510826 -0.153074 -0.251132 0.133378 0.318749 0.210486 -0.352417 0.616221 -0.085793 0.685751 -0.096885 0.318186 -0.349027 -0.462665 -0.454464 0.121279 0.245962 0.211133 -0.082883 -0.30777 -0.25504 0.3276
帔 -0.17222 0.798221 0.222347 0.018456 -0.435523 0.691294 -0.32093 0.171677 0.142844 0.152844 0.10625 -0.500592 0.433255 0.290571 -0.055881 -0.423326 -0.072379 0.010983 0.027985 0.194838 0.85414 -0.158952 0.131546 -0.005743 0.376243 -0.22787 0.127341 -0.598089 -0.088854 -0.142842 0.300006 0.110251 0.006017 0.014164 -1.28797 -0.038167 0.146118 -0.343796 0.218787 -0.478496 0.205581 0.287351 -0.473458 -0.06387 -0.090598 -0.115482 0.281307 0.597444 0.095332 -0.410379 -0.656285 -0.319815 -0.123842 0.204203 0.28262 0.013195 -0.72324 0.275341 0.170562 0.118615 0.588028 -0.049228 -0.10288 -0.144219
芗 0.03826 -0.1194 0.686733 0.186539 0.674862 -0.159632 -0.539153 1.05226 0.459484 -0.511282 0.566599 -0.267043 -0.653978 0.316168 0.337581 -0.359614 -0.650225 -0.199047 0.085466 0.193623 0.867408 -0.687911 0.714041 -0.453502 0.250128 0.200722 -0.431562 -0.704805 -0.236193 -0.221426 0.752677 1.5062 -0.06118 -0.028296 -1.62486 -0.522853 0.035022 0.527924 0.380436 -0.701603 0.461307 0.741933 0.51396 0.328298 0.031888 0.362924 0.929439 1.03468 0.588022 -0.144928 0.070561 -0.605092 0.814877 -0.845295 0.493008 -0.782102 -0.070853 0.372727 -1.45962 0.41934 -0.864299 -0.165582 -0.567141 1.18884
脖 0.543882 0.155328 -0.909817 0.304326 0.729283 0.6492 0.891627 0.478418 0.428225 0.016153 0.112336 0.251539 -0.138505 0.114578 0.652078 0.1297 -0.658697 -0.798557 0.276618 -0.626829 1.09617 -0.192075 0.261231 0.02399 0.603032 0.472924 -0.427938 -0.147748 -0.685134 0.480844 -0.198063 -0.08867 0.875951 0.063714 -0.759183 0.600695 0.04773 1.18984 0.144917 -0.454476 0.713573 0.605156 0.939117 0.017497 -0.353409 0.481643 1.02039 0.745847 -0.098129 0.644357 -0.445043 0.732536 -0.497468 -0.317804 -0.298131 0.123435 0.1842 0.667997 -0.068889 -0.404917 -0.078102 0.303188 -0.032168 -0.533209
料 -0.424736 -0.514482 -0.34832 -0.142366 -0.088147 -0.219154 -0.18792 -0.145406 -0.515211 -0.203542 -0.391788 0.124041 -0.592555 0.322164 0.015591 -0.500495 0.358268 0.076455 -0.42932 -0.422964 -0.290383 0.019735 -0.80511 -0.904349 -0.099305 0.219407 0.368193 -0.278655 -0.134055 -0.417133 0.004317 -0.465266 0.507099 0.324167 -0.139889 -0.003827 0.439615 -0.082881 0.143406 -0.477998 -0.31561 -0.01173 0.309841 0.174246 0.29708 0.772233 0.283889 -0.408857 -0.321585 0.228394 0.128457 -0.008339 0.174903 0.025529 -0.01855 0.14254 0.026083 -0.221774 -0.076012 0.529245 -0.074564 0.220126 0.115581 0.451069
兆 0.175448 0.617991 0.614741 -1.29469 -0.163278 -0.197729 -0.418397 0.336239 -0.681937 0.068087 0.909394 0.327663 0.509699 -0.083364 -0.005952 -0.362924 -0.18953 -0.067875 0.001997 0.259051 0.155117 0.000498 -0.09666 0.208384 -0.032881 0.138805 0.064611 0.016312 -0.317733 0.052436 -0.143038 0.404555 -0.519578 -0.22588 -0.362478 -0.843738 0.512362 -0.086838 -0.340243 0.399995 0.094862 -0.022062 0.386593 0.771212 0.087151 -0.2627 -0.021392 0.855996 0.13474 -0.026775 0.245142 0.042955 -0.441792 0.152525 0.517036 -0.408899 -0.629047 -0.20784 0.94773 -0.288127 0.535947 0.321939 -0.505915 0.400995
蜚 0.515723 0.089363 0.407182 0.370657 -0.107249 0.290309 -0.515359 0.31162 0.35391 -0.364728 0.346715 -0.225722 -0.209524 -0.097257 0.749482 -0.411545 -0.236419 0.273136 -0.098935 -0.2021 0.669619 1.08512 0.812643 -0.887482 0.358343 -1.0676 1.05138 0.051985 0.253292 0.364508 0.862532 0.624652 -0.039223 0.130344 -0.278941 0.087008 -0.759467 0.501896 0.333663 -0.389167 0.623109 0.192739 0.463629 -0.073648 -0.51252 1.02098 0.48708 0.20098 -0.48682 -0.426492 0.239505 -0.308656 0.54651 0.575765 0.157057 -0.222554 -1.16733 -0.291449 -0.04164 0.266901 0.605214 -0.362326 -1.01429 -0.02991
亟 -0.311047 0.856162 -0.091611 -0.035397 -0.389152 -0.03303 -0.25278 0.490422 -0.230327 0.480076 -0.316503 -0.131368 -0.772012 0.496638 0.137442 -0.142164 -0.834559 0.180424 -0.611582 -0.063935 0.974635 0.034073 0.519975 0.645384 0.241952 1.13067 0.651895 0.598501 -0.271092 -0.235524 0.356164 0.285698 0.342932 0.02731 -0.138393 -0.961564 1.24764 -0.656541 -0.874108 -0.019025 -0.069891 0.270047 -0.519215 0.745793 0.568707 0.363509 -0.046118 -0.350251 -0.572703 -0.765 0.717005 -0.328143 -0.426205 -0.094836 0.410883 -0.126921 -0.171466 0.50214 -0.488216 -0.222278 1.31959 -0.030122 -0.07442 0.454374
洞 -0.258049 0.134059 0.338745 0.018228 0.05924 -0.343554 0.158794 -0.385914 0.329475 -0.040553 0.023153 -0.711171 0.072465 0.111312 0.192686 -0.07299 0.029743 0.628007 0.284692 -0.665471 0.504925 -0.237899 0.001841 -0.62836 0.653666 -0.286963 -0.387263 0.098167 0.063712 0.421836 -0.314832 0.374308 -0.036201 -0.488299 0.036071 0.554612 0.154184 0.103328 0.220721 -0.022588 -0.086877 -0.296398 -0.43986 0.192047 -0.121062 -0.000338 -0.11926 0.752351 0.201659 0.064658 -0.020024 -0.474173 0.236058 0.019265 0.290479 -0.104549 0.032498 -0.055544 -0.126315 -0.66234 0.150792 0.070041 -0.230727 0.271032
造 -0.165214 -0.435326 0.391887 0.064422 0.349666 -0.306932 -0.032517 0.177788 0.156331 -0.060714 -0.129172 -0.121204 -0.157416 0.199765 -0.036797 0.17332 0.452296 -0.165474 -0.007707 -0.172406 0.058459 0.134938 0.279803 -0.182192 -0.414073 -0.315135 -0.180575 -0.163296 -0.317291 0.187798 0.047223 -0.542866 0.331387 -0.151069 0.416541 0.019963 0.1443 -0.395319 0.3496 0.302051 -0.188478 -0.109133 0.544518 -0.335663 0.353761 0.213211 0.37234 -0.1856 0.305409 -0.068335 0.198278 -0.153231 0.202502 0.009654 0.228155 0.041888 -0.066249 -0.104876 0.105611 -0.105581 0.445759 0.123579 0.095821 -0.075311
瘤 0.760782 -0.973199 -0.190861 0.369066 -0.474304 0.437515 0.376303 -0.255937 0.230206 0.757984 0.333698 0.5643 0.425654 0.035003 0.402035 0.483678 0.643481 -0.053401 -0.061462 0.556534 1.18792 -0.033849 -0.127358 -0.653674 -0.330958 0.563836 -0.107024 0.151108 0.284772 0.125407 0.9778 0.774054 -0.57118 0.360121 -0.471489 -0.093725 -0.027094 -0.020153 -0.328425 -0.926537 0.029079 0.050919 0.746861 0.440461 0.295348 0.393637 -0.026238 -1.03428 -0.09776 0.118034 -0.990455 -0.652906 -0.020321 -0.945479 -0.560132 0.364609 -0.446767 0.378482 -0.209081 -0.243848 0.16475 0.230897 -0.144256 -0.436599
绝 -0.042242 -0.273272 -0.17532 0.240281 -0.084438 0.371809 -0.3887 -0.03362 0.221843 -0.215224 -0.277854 0.066065 -0.104736 0.040354 0.089005 0.111881 0.248811 -0.132434 0.136832 -0.178598 -0.11173 -0.032116 -0.295016 0.27783 0.258893 -0.501263 0.159159 -0.283087 0.26132 0.032594 -0.006328 0.109608 0.137739 -0.090132 0.05463 0.145723 0.496257 -0.025535 -0.51035 0.426797 0.085987 -0.074053 -0.195781 -0.511313 0.000426 0.519727 0.020218 -0.341533 -0.36027 -0.026692 0.301473 0.098368 -0.341428 -0.184343 0.116635 0.019147 -0.126768 0.095659 -0.186174 -0.118274 0.132183 -0.360597 0.093031 0.098516
悫 -0.311776 0.189261 0.965287 -0.918775 -0.066197 1.05501 1.05518 0.519036 -0.191354 -0.838713 -0.018849 -0.098263 0.001298 -0.355233 0.739736 -0.123625 -0.048768 0.523993 -0.352752 0.129252 0.405929 -0.212298 0.244861 -0.022679 0.064273 0.406565 1.50758 0.750837 -0.628494 -0.614127 0.287288 0.458708 -0.17947 -0.341905 -1.10075 -0.763951 0.018099 0.124481 -0.26779 -0.30386 -0.003532 0.177223 -1.18996 -0.813608 -0.166832 0.64085 0.088496 0.352058 -0.256908 0.594704 -0.599914 -0.678247 0.339569 -0.076977 1.11829 0.41945 -0.556543 0.554271 0.722905 1.14914 -0.269812 -0.003373 -1.00648 0.136383
缪 -0.782167 -0.09848 0.225844 -0.51006 -0.62045 0.397907 0.336063 -0.26794 -0.609735 0.543157 -0.109637 -0.839636 0.030985 -0.148655 -0.015021 0.042659 -0.482912 -0.872347 -0.126437 0.617842 0.69328 -0.478484 -0.47162 0.755638 -0.100045 0.269427 0.0573 -0.328297 0.328258 0.079832 0.004373 -0.264782 0.259165 -0.213517 -0.426731 -0.034993 -0.378525 0.815014 -0.473315 -0.076551 0.001216 0.434915 0.294736 0.034994 -0.098889 0.40136 0.336706 0.89099 -0.670271 0.473888 -0.022555 -0.035544 -0.301705 -0.116869 -0.657513 -0.159308 -1.05421 -0.15944 -0.022958 0.073411 -0.748237 0.287006 -0.097453 0.037387
般 0.16006 -0.296628 0.173469 0.270474 0.176792 -0.237747 -0.316243 -0.050132 -0.35678 0.393804 -0.041963 -0.487438 0.189372 0.09514 -0.333159 -0.157414 0.234972 0.300434 -0.279895 0.24616 -0.172753 -0.155825 -0.187435 -0.088276 -0.122336 -0.226837 0.007054 0.249055 0.481659 -0.307739 -0.224667 -0.183981 0.127756 -0.172114 -0.066119 0.199358 -0.330622 -0.173976 -0.009023 0.036721 -0.082203 0.106584 0.109267 -0.195624 -0.144946 0.233328 0.446735 -0.148004 -0.154563 -0.117056 0.107004 0.061697 0.072111 0.141176 0.403172 -0.115679 -0.087707 -0.108587 -0.199432 -0.242477 0.252236 -0.027415 -0.005232 0.111811
蚯 -0.48573 0.687728 0.399028 -0.75185 -0.008285 1.01882 -0.503321 -0.151135 0.594927 -0.146428 0.472803 -0.660834 -0.102336 -0.275431 0.204323 -0.521899 -0.140799 -0.066894 -0.675293 -0.074209 0.771761 0.090064 0.293727 -0.341774 -0.359907 0.880284 0.312673 -0.162271 -0.074824 -0.123179 0.446727 -0.50977 0.443558 -0.054353 -1.27384 0.628099 0.051549 -0.183923 -0.058561 -0.848933 0.413575 0.683798 -0.492174 -0.004407 -0.094502 0.805575 0.448854 -0.268608 0.196387 -0.09734 -0.675081 -0.644506 -0.144587 0.37405 0.403046 -0.092316 -0.279312 0.451674 -0.703752 0.17621 0.313717 -0.161931 -0.333414 0.292214
作 -0.068253 -0.300122 0.068009 0.036931 0.350917 -0.086488 0.10285 -0.132227 -0.20149 0.094285 -0.291702 0.193502 -0.026623 0.364676 -0.118305 0.140753 0.188172 0.07894 -0.326253 -0.090952 -0.253064 0.370799 -0.00881 0.019004 -0.324926 -0.164722 -0.318754 -0.176153 0.067668 -0.136412 0.250954 -0.346227 0.063742 0.119664 0.834033 -0.144 -0.186533 -0.262023 0.08678 0.051048 -0.115234 -0.061306 0.182532 0.152325 0.208509 -0.17827 0.067371 -0.397658 0.164169 0.169187 0.274232 0.011416 0.099568 0.301787 -0.198834 -0.152833 0.099829 -0.183212 -0.185016 0.013561 0.283809 0.173917 0.104574 0.120875
河 -0.62449 0.139771 -0.16035 0.152094 -0.228807 -0.339826 0.340736 -0.224326 0.39307 -0.082476 0.111111 -0.229239 -0.180022 -0.05064 0.053961 0.731235 0.306932 0.195739 -0.000987 -0.160846 -0.470486 -0.259993 0.512757 -0.392254 0.151698 0.028258 0.226267 -0.078136 -0.306568 -0.125532 -0.043045 0.366598 0.532489 -0.19081 0.034357 -0.041217 -0.010101 0.082254 -0.248577 0.089338 0.129938 -0.506886 -0.108366 0.133623 -0.368618 0.073025 -0.881987 0.520627 0.27187 0.321521 -0.908838 -0.083057 -0.579798 0.059614 -0.278795 -0.369481 0.13019 -0.385527 0.113112 -0.310792 -0.447788 -0.25349 -0.180262 0.033463
欲 -0.480666 -0.45364 -0.475913 0.162741 0.079827 0.495261 -0.035847 0.137065 -0.4023 -0.103958 -0.507782 -0.531737 0.142306 0.273548 -0.397615 -0.060131 0.106638 -0.225303 -0.132571 -0.215609 0.381177 0.439858 0.408882 0.148291 -0.012274 -0.087747 0.363246 0.229467 -0.270326 0.195913 -0.069431 0.145422 -0.295239 0.126432 -0.179733 -0.228341 0.181083 -0.219268 -0.602654 0.331887 0.175399 0.328093 -0.293661 -0.486784 -0.531731 0.408762 -0.253812 -0.250819 -0.164671 -0.684308 0.284203 0.226562 -0.209588 -0.038217 0.100318 -0.540261 -0.032804 9e-06 -0.383959 -0.266331 0.537581 0.302377 -0.124257 -0.263526
侵 -0.273986 0.38581 -0.274313 0.037428 0.365499 0.107617 0.482747 -0.252196 -0.502582 -0.109501 -0.313902 -0.158965 -0.008194 -0.284827 0.213976 -0.472606 0.292098 -0.340107 0.577346 -0.050482 -0.240104 0.040662 0.294346 -0.208941 0.352031 -0.506883 1.04244 -0.119436 0.397671 0.643374 0.135366 0.386339 0.07381 -0.326459 0.667743 0.01624 0.452434 -0.099662 0.357113 -0.016406 -0.279445 -0.468917 -0.207303 0.398103 0.000596 0.076083 0.763859 0.209764 0.450904 -0.391051 -0.100488 0.274102 -0.243893 -0.609953 0.260679 0.62955 -0.214209 -0.244593 -0.176149 0.188824 0.155499 -0.136052 -0.621603 -0.606049
临 -0.144043 0.517389 0.205074 0.352182 -0.405373 0.035991 -0.009267 0.380996 0.446182 -0.280963 -0.425026 -0.016654 -0.563824 -0.4422 -0.22627 0.057995 0.227653 -0.058543 -0.265009 -0.436053 -0.274513 -0.252482 0.413991 0.23038 -0.169378 0.260073 -0.040169 0.028952 -0.168958 0.423445 -0.123082 0.375903 0.272377 -0.157978 0.380838 -0.132879 -0.051451 -0.334285 0.045538 0.18382 0.027399 0.253858 -0.170008 -0.360668 0.129882 -0.043921 -0.593496 -0.049408 0.043197 -0.464581 -0.574757 -0.017565 0.399807 -0.352571 0.350316 0.254196 0.044035 -0.042867 -0.067675 -0.014634 -0.14264 0.129392 0.18853 0.167483
然 0.004131 -0.338638 -0.520594 0.320856 -0.010784 -0.220602 -0.196598 0.180555 -0.322719 0.237177 -0.353326 -0.109242 0.222715 0.709492 0.114503 -0.66829 0.337708 -0.165553 -0.046843 0.00468 -0.627082 -0.12121 0.129345 -0.361918 0.285105 -0.043618 0.385613 0.130356 -0.044933 0.131338 -0.028329 -0.102962 -0.115804 -0.094758 -0.053706 0.227416 -0.015547 -0.013891 -0.55938 -0.115608 -0.306936 0.141596 0.673755 -0.188848 -0.428999 -0.090387 0.112168 -0.63601 -0.088218 -0.452375 -0.116757 -0.095545 0.254254 0.089896 0.498062 0.100065 0.109887 0.315822 0.420174 -0.019457 -0.29702 -0.197364 -0.065089 -0.032726
吸 -0.082402 -0.478442 -0.246229 0.43035 0.062505 0.209362 -0.118668 -0.334211 0.013925 -0.347673 0.07649 -0.138935 0.342103 0.202119 -0.359725 -0.090303 0.054545 0.253615 -0.036474 -0.533605 0.202563 0.11578 -0.158868 -0.163159 -0.474155 0.148553 0.334764 0.038841 0.578078 0.061385 0.313647 0.290797 -0.399422 0.137089 0.732631 0.030166 0.514561 0.105453 0.010608 0.09956 -0.014972 -0.001608 -0.063927 -0.073772 0.08217 0.45768 0.609621 0.229484 0.174248 -0.160429 -0.725523 -0.244897 -0.61297 0.157097 0.126659 -0.148659 0.138681 0.029043 -0.156812 -0.218229 -0.01316 0.051759 0.231523 -0.048523
场 -0.400969 -0.223306 -0.24297 0.222925 -0.001143 -0.012767 0.045461 0.002287 0.000618 -0.088829 -1.04952 0.528239 0.020639 0.134295 0.026231 0.276558 -0.096491 0.559408 0.031889 -0.007724 -0.48095 -0.209797 -0.857557 -0.207818 -0.182407 -0.055624 -0.021581 0.721728 -0.300104 0.080895 -0.239131 0.034755 -0.246576 -0.007657 0.090782 0.144178 -0.277609 -0.226412 -0.210598 0.29876 -0.034555 -0.289475 0.605217 0.003035 -0.345449 0.01886 -0.061098 -0.176715 0.210976 -0.071033 0.248445 -0.158852 0.081807 0.331304 0.274228 -0.162003 0.248551 0.477318 0.07805 -0.197645 -0.247831 0.064286 0.304201 -0.009167
宽 0.038395 -0.366347 0.199599 -0.056339 0.092489 -0.346888 0.624381 0.45272 -0.131063 0.01192 0.434339 0.335868 -0.110089 0.530308 -0.420985 -0.068557 0.018971 -0.362609 0.500946 -0.062446 -0.233723 -0.591217 -0.032874 0.58416 0.532805 0.100142 -0.025224 -0.169632 -0.632387 0.152342 -0.228371 0.009092 0.135077 0.397131 -0.239927 0.606741 0.138111 -0.280698 0.389516 -0.469216 0.944941 -0.150004 -1.00971 0.574104 0.03385 -0.124254 -0.289968 0.093737 -0.159098 -0.497294 0.112592 -0.351056 0.163586 0.459407 -0.023326 0.56857 0.174379 0.251226 -0.344004 0.166938 0.28736 -0.204024 0.024538 0.253582
娼 1.128 -0.63289 0.342937 -0.38206 0.233331 0.241471 -0.340856 -0.319847 0.250762 -1.14461 -0.386986 -0.249615 -0.523455 -0.563235 0.263312 -0.156795 -0.217337 -0.29262 -0.012196 1.08138 0.885216 -0.359398 -0.595672 -0.130075 -0.232475 -0.858127 -0.20326 0.061277 0.287309 0.103621 0.305102 0.056357 -0.134979 -0.400821 -0.819802 -0.111136 0.197073 0.720905 0.146693 -0.845859 0.243977 0.708412 0.198094 -0.974877 0.832279 -0.716478 -0.837665 -0.015463 0.408716 -1.21634 0.362531 -0.892978 -0.347218 -0.076548 -0.319955 0.375821 -0.281429 0.053848 -0.491762 0.946146 0.206382 0.798842 0.378239 -0.583038
线 -0.292143 -0.191715 -0.064616 -0.060931 -0.222348 -0.408753 0.286017 0.175222 -0.260163 0.008098 -0.012507 0.110587 0.039243 0.146188 0.267273 0.594398 -0.257789 0.020337 -0.396721 0.072308 -0.465306 -0.075244 -0.22682 0.056937 0.153031 0.171176 -0.287554 0.306391 0.123164 -0.065115 -0.566401 0.046897 0.113369 0.265463 0.259121 0.448451 -0.137508 -0.483384 0.172638 0.039205 0.21684 -0.671746 0.151632 -0.019312 -0.068317 0.851436 -0.286341 0.062235 -0.030873 0.011669 -0.268827 -0.022836 0.229778 0.18245 0.234654 0.036645 -0.035379 -0.109838 0.320642 -0.039516 -0.158636 0.615882 0.219042 -0.310993
偿 -0.801596 0.735378 -0.058523 -0.769312 -0.239678 0.138714 0.044119 -0.372796 -0.434364 0.503895 -0.152987 -0.243786 -0.279869 0.100611 -0.551609 -0.208827 0.163681 -0.419541 -0.466764 0.278006 0.21418 -0.285332 -0.881504 -0.187068 0.858235 -0.097152 -0.088732 0.090014 0.304426 0.037465 -0.052868 0.773766 0.564142 0.501895 0.371752 -0.76686 0.861118 -0.053241 -0.317677 0.161245 0.472328 -0.0133 0.594491 -1.13079 0.396262 -0.047752 -0.004444 -0.481955 -0.04247 -0.097378 0.49638 -0.228573 -0.424022 0.20603 0.120786 0.216431 -0.34265 -0.414531 0.06615 0.300351 -0.091812 0.49764 0.293348 -0.348213
捂 0.928147 0.5111 0.431308 0.922606 0.398074 0.376332 0.318986 -0.102231 0.171137 -0.370812 0.094735 0.439753 -0.12003 0.78415 -0.383224 -0.296055 -0.058365 -0.938644 -0.830671 0.035184 0.57486 -0.147223 -0.526518 -0.281191 -0.160804 0.166119 0.357307 0.371707 -0.09284 0.297083 -0.253055 0.462838 0.39587 0.358973 -0.951332 -0.40964 -0.238876 0.647915 0.122913 0.31195 -0.032744 0.369771 -0.425767 0.175056 -0.256001 -0.34798 0.409657 0.082521 0.865191 -0.63925 -0.931478 0.119923 -0.966285 -0.400576 -0.513094 -0.51093 -0.547593 0.298403 -0.305815 -0.797955 0.545897 0.748302 0.678783 -0.379415
史 0.32894 0.132093 -0.004065 -0.264186 -0.230773 -0.093268 0.27319 -0.060271 0.286019 0.634988 -0.120431 -0.375446 0.073043 0.29956 0.472955 0.267489 -0.169151 0.598222 -0.10845 -0.477997 -0.684534 0.110127 0.213965 0.440452 -0.132603 -0.329803 -0.043049 -0.171307 0.025569 -0.209245 0.092002 0.113802 -0.131689 -0.008728 0.429734 -0.164028 -0.184854 0.014366 -0.12812 -0.336631 -0.942179 -0.27504 0.546807 -0.177219 0.327575 -0.44221 0.140799 -0.10222 0.013428 -0.277811 -0.134878 0.214561 0.108996 -0.033008 0.037911 0.087865 -0.038147 -0.166676 -0.494755 0.448219 -0.027025 -0.122044 -0.611691 0.001307
反 0.007273 -0.266696 0.223599 0.305801 0.255592 0.682414 0.073181 0.057777 -0.052673 -0.475074 -0.007555 0.266344 0.203128 -0.031065 -0.025206 0.101664 -0.336 -0.496724 0.64506 -0.136823 0.195423 -0.1464 -0.212894 0.124765 -0.0496 -0.54884 0.446813 0.097635 -0.17142 -0.077158 0.100587 -0.019223 0.101219 0.080427 1.03867 -0.04576 -0.371569 -0.272971 -0.388556 -0.237643 -0.148508 -0.121217 -0.091617 0.012274 -0.481659 0.061745 -0.041897 -0.313319 0.161577 -0.008013 -0.122384 -0.007853 -0.077204 0.04324 0.087526 0.286271 -0.118277 -0.069037 0.175694 -0.059437 0.149094 0.333429 0.235545 -0.215386
牌 0.172262 -0.190008 -0.125714 0.226064 0.421617 0.055604 -0.109258 0.00892 0.263362 0.235157 0.048649 0.286483 -0.091788 0.087122 0.089669 0.196888 -0.384921 -0.190698 -0.405334 0.25515 -0.160262 -0.298174 -0.332729 -0.835045 -0.182829 0.019279 -0.745818 0.032371 -0.590566 -0.214323 -0.528974 -0.270204 0.005542 0.096029 -0.110172 0.395267 0.125497 0.293221 0.343912 -0.031552 0.240782 -0.040113 0.41447 -0.130563 -0.090617 0.266658 0.374121 -0.134345 0.45117 0.141648 0.183856 -0.083081 0.206208 -0.176289 0.156808 -0.098252 -0.076629 -0.05039 -0.28019 0.465504 -0.323187 0.163876 0.100774 0.103201
雏 -0.658283 0.370159 -0.34609 -0.90588 -0.287614 0.651366 -0.541705 -0.215361 1.08396 0.09583 -0.427247 -1.44024 0.11439 0.111318 0.572422 -1.07264 -0.286963 -0.584125 -0.187475 -0.242855 0.775729 0.397226 -0.69792 1.14191 -0.51554 0.081925 -0.001051 -0.779562 1.32545 0.720782 -0.824605 -0.56913 -1.066 0.103637 -0.360644 0.55622 0.676056 0.714211 -0.142807 0.153004 0.505529 0.134305 1.17875 0.468109 0.549727 0.286074 0.409206 0.358307 -0.113068 -0.634433 0.548773 -0.424479 0.351143 -0.003579 0.359459 0.620996 -0.268681 0.545414 -0.835194 -0.702148 0.200105 0.045038 0.160987 0.062749
舌 -0.299517 -0.198605 0.04093 0.803804 -0.904368 0.367341 -0.346618 -0.030495 0.246724 0.365608 -0.253416 -0.643698 0.954302 -0.597423 0.166659 0.937849 -0.92021 -0.25183 -0.356224 0.560761 0.641748 0.944767 -0.62753 0.271617 0.065667 -0.46555 0.164532 0.117218 0.816239 -0.282732 0.380894 -0.041395 0.259029 0.170621 -0.247273 0.032254 -0.39858 -0.137859 -0.318642 -0.368082 0.7793 -0.387284 -0.619662 -0.177675 -0.752114 0.343033 -0.102114 -0.085797 -0.220573 0.45 -0.921043 0.150352 -0.27075 0.017084 -0.655446 0.09698 -0.609645 -0.926355 0.521751 -0.688326 -0.161351 -0.107027 -0.391473 0.038468
科 0.165718 -0.248283 -0.528867 -0.263982 -0.016557 -0.482485 0.126076 -0.361344 -0.144193 0.241557 0.104657 -0.644954 0.080486 -0.728396 0.339244 0.272486 0.535743 0.281583 -0.22903 0.140603 0.17163 0.176338 0.001849 0.587192 -0.274221 0.180535 -0.018364 0.063808 0.159018 0.200985 -0.038038 -0.245261 -0.007649 0.142629 0.277963 0.097417 -0.184655 -0.387315 -0.137877 0.159967 -0.118198 -0.378242 0.184362 0.205217 0.056416 -0.3622 0.383355 -0.071271 -0.214359 0.719737 -0.224772 0.0118 0.021054 -0.189534 -0.471584 -0.175854 0.052034 0.151426 0.005099 -0.091069 -0.513556 0.388967 -0.347282 0.775533
弹 -0.361195 -0.388231 0.102643 -0.39231 -0.136676 0.627941 0.179955 -0.004376 -0.367133 -0.565049 -0.248002 -0.621126 0.42074 0.792142 -0.256539 -0.055923 -0.02142 0.137026 -0.051946 -0.182324 0.168844 0.354908 -0.658481 -0.405639 0.152188 -0.139824 -0.275938 0.504047 0.243604 0.210776 0.147306 -0.421059 0.20143 -0.162698 0.467374 0.39471 -0.212936 0.007765 -0.24759 -0.079427 -0.620665 -0.369909 0.070702 0.499415 0.347874 0.663098 0.410758 0.548784 -0.133667 0.112713 0.569798 -0.110068 -0.140772 0.220351 -0.191713 0.727885 -0.419211 -0.063319 0.134619 0.171101 -0.243984 0.269796 0.6775 -0.423403
筒 0.595015 -0.488133 0.406575 -0.476783 -0.623226 0.502778 0.436966 -0.492051 0.318917 0.210009 -0.331781 0.061524 0.945471 1.13408 -0.124695 0.349622 -0.472296 0.49106 -0.456919 -0.590776 0.902597 -0.193412 0.029418 0.048678 0.700712 0.159703 -0.285827 0.50529 0.422908 0.151682 -0.401756 -0.412556 -0.176103 -0.016823 -1.10985 0.411445 0.578494 0.453773 -0.452227 -0.704106 0.012941 -0.040518 0.23234 0.590298 0.521348 0.68278 0.567429 0.336388 0.861854 0.670778 0.212717 0.224516 0.112624 0.7389 -0.074265 0.25196 0.164648 0.025666 0.304876 -0.353576 -0.549755 0.212817 0.356918 -0.36787
嚏 0.287793 0.245518 -0.000221 0.051552 -0.686612 -0.303802 0.256894 -0.147897 0.331676 0.195133 0.233319 0.056908 0.596608 -0.101565 -0.099341 -0.377216 -0.101751 0.545985 -0.304014 0.659534 0.981862 -0.781602 -0.223873 -0.417027 0.391282 0.562407 0.445788 0.135397 0.254303 -0.158959 0.716426 -0.024351 -0.23662 0.152162 -0.947729 -0.086489 -0.535495 0.018685 0.81056 -0.29681 0.408913 0.744832 0.481317 0.117657 0.61549 0.802865 0.475774 1.00938 0.765197 -0.132713 -1.61135 0.368098 0.866333 0.021547 0.255045 -0.0897 -1.24866 -0.036425 -0.426688 0.141036 -0.075055 0.13875 -0.411657 -0.608276
苗 -0.171345 0.271591 -0.645776 -0.745989 -0.110274 0.29485 -0.510918 -0.048174 -0.690397 0.069903 -0.062502 0.073739 -0.194731 -0.110252 -0.079515 0.278313 0.079483 0.057379 -0.190077 0.118191 0.673545 -0.052124 0.460695 -0.056157 -0.091351 0.465114 0.447599 0.165537 -0.701044 0.597998 0.145301 -0.176439 -0.007709 -0.158703 -0.296401 -0.291072 -0.173686 0.636264 -0.101361 -0.414602 0.197026 0.021462 0.068624 0.632011 0.193042 0.293046 0.191877 -0.411857 0.141368 0.177174 -0.153013 -0.501537 0.130353 -0.018245 -0.2901 -0.136373 0.204064 -0.184932 0.184752 0.233715 0.287469 0.276724 0.045886 0.424245
纸 0.284453 -0.31707 0.308612 0.194557 0.217183 0.2503 -0.621164 -0.407316 -0.177346 -0.111884 0.156044 0.050338 -0.235836 -0.077708 -0.109293 -0.145048 -0.098473 0.004305 -0.204997 0.092893 0.658223 0.434098 -0.084834 -0.704392 0.34981 -0.088463 -0.358237 0.059228 0.163921 -0.137801 -0.146501 -0.769085 0.842006 0.108353 -0.592006 0.18618 0.745174 -0.007447 0.778868 -0.134136 -0.472233 -0.324627 0.034397 -0.292284 0.424926 0.33756 -0.41745 -0.386527 0.061048 0.16186 -0.08873 0.059397 0.218326 0.000781 -0.015981 -0.101943 0.075553 -0.461559 -0.304476 0.624629 -0.060606 0.480898 -0.258962 0.684163
摘 -0.524889 0.423389 0.331537 -0.094651 -0.314812 -0.11349 -0.106963 -0.639899 0.073521 0.042666 -0.564448 0.763086 -0.046384 0.362894 0.142527 -0.211104 0.181746 -0.098307 -0.040636 -0.071793 0.721048 0.214788 -0.792135 -0.234463 0.059445 -0.031802 -0.080552 -0.33188 0.317714 -0.553192 0.447049 -0.590115 -0.023048 0.155317 -0.399379 -0.218945 -0.180061 0.015868 0.134665 -0.391775 0.188875 -0.410519 -0.714974 0.137217 -0.085635 0.275651 0.750788 -0.050329 0.696707 -0.027259 0.035364 0.014856 -1.7035 -0.284997 0.312153 -0.097439 -0.188027 -0.10752 -0.235698 0.181066 -0.127714 -0.185839 -0.27408 -0.042092
话 0.142014 -0.341934 0.012691 0.168098 0.663749 0.069921 -0.262643 0.050622 -0.742124 0.247164 0.077243 0.790044 -0.02394 -0.189101 -0.41971 0.341667 -0.20328 0.741573 -0.617166 -0.123008 0.022937 0.178107 0.214212 -0.304368 0.408908 0.514961 -0.186298 -0.118614 0.189472 -0.16315 0.373849 0.27092 0.511766 -0.345525 0.166416 -0.033193 0.045904 0.341155 -0.058117 -0.201253 -0.589287 -0.206401 -0.239992 0.081516 0.186699 0.542578 -0.610126 -0.537998 -0.046001 0.314424 0.396219 -0.356935 0.218909 0.316202 0.24965 -0.313304 -0.312552 0.093106 0.036383 -0.163463 -0.285052 -0.334523 -0.151254 -0.007542
赞 0.629435 -0.022456 -0.320837 -0.28572 0.470482 0.097195 0.359386 0.151298 -0.409784 -0.29235 -0.148031 0.04069 0.38976 0.003692 -0.426624 0.035951 -0.682046 -0.065425 -0.073158 0.211601 -0.358916 0.083624 0.16176 0.243541 0.227439 -0.495336 0.288418 0.126818 -0.57913 -0.102611 0.315638 0.056468 0.330917 0.241922 0.021873 -0.330688 0.385064 0.835779 -0.032929 -0.155196 0.487661 -0.077747 -0.402966 -0.010867 0.00916 -0.314051 0.537836 -0.147473 0.257043 0.190616 0.348076 0.450069 -0.815868 0.129411 -0.31988 0.318597 -0.053021 0.4019 0.066402 0.013219 -0.098088 -0.243857 -0.282617 0.296877
凡 -0.45748 -0.31865 -0.28945 -0.640074 0.049856 -0.536045 -0.094763 0.04059 -0.084281 0.20651 0.134311 -0.512078 -0.003593 0.175481 -0.198056 -0.522475 0.052513 -0.053405 0.154326 0.107068 -0.170397 -0.359078 -0.090227 0.429771 0.063217 -0.513158 0.380919 -0.353044 0.211504 0.085949 0.320086 -0.279828 -0.041901 -0.136271 0.09523 -0.196515 0.288004 0.398331 -0.525738 0.213961 0.0118 -0.170048 -0.140446 -0.097206 -0.372704 -0.22392 -0.115006 0.164655 -0.659693 0.018511 0.518687 0.112238 0.27553 -0.290061 0.359834 -0.425682 -0.092408 0.290419 -0.29624 0.024608 -0.506093 -0.313373 -0.203356 -0.25921
瓣 -0.342573 -0.126168 -0.411853 -0.430108 -0.475526 0.3423 -0.338705 0.193251 -0.026117 0.080027 -0.324313 0.050846 0.387277 -0.816522 -0.380665 0.378107 0.388621 -0.302528 -0.874568 0.294208 0.519223 0.406606 0.015754 -0.198519 0.462138 0.832846 -0.084864 0.424795 0.431965 -0.157548 -0.052562 -0.155074 0.232758 1.14852 -0.874409 0.033 -0.387897 0.139299 -0.136753 -0.580757 -0.009541 -0.440754 -0.304037 0.372014 0.025663 -0.297538 -0.061713 0.586721 0.252816 -0.178329 -0.76296 0.076174 -0.154257 0.14132 0.30241 -0.1075 -0.589045 1.04415 0.133871 -0.479611 0.599472 0.062546 -0.164169 -0.069893
卢 0.072977 -0.159107 0.090549 -0.141761 -0.080431 -0.101839 0.097258 0.171336 -0.427127 0.245714 0.270108 -0.254109 -0.373633 0.078505 0.258316 0.405985 -0.165183 0.215528 0.238362 -0.300302 -0.093488 -0.242327 0.062315 0.638212 -0.412502 0.069723 0.695031 0.06021 -0.264893 0.224155 -0.1156 -0.140821 -0.001726 -0.024097 -0.551858 -0.053863 -0.721785 0.396774 -0.244907 0.016087 0.064687 -0.173878 0.208867 -0.187605 -0.048312 -0.649416 0.078131 0.484441 -0.070054 0.410381 -0.401185 -0.085431 -0.198495 -0.044532 -0.952334 -0.189259 -0.110279 0.023569 -0.393175 -0.065488 -0.133441 0.578488 -0.045426 -0.46626
知 0.071884 0.140163 -0.150907 -0.00284 0.126829 -0.487537 0.526969 -0.069266 0.001327 0.451932 0.085102 -0.204965 -0.065397 -0.357064 -0.168493 -0.256959 0.102348 0.160293 -0.053411 -0.023722 -0.280489 0.149931 0.300573 0.056426 0.38662 -0.060231 0.031047 -0.42991 -0.016861 -0.140381 0.151184 0.198915 0.129799 -0.400356 0.481384 -0.008685 0.342905 0.21315 -0.13453 -0.13553 -0.070406 0.068228 -0.249575 -0.404771 -0.032489 0.049676 0.1764 -0.748472 -0.149808 0.062807 0.13972 0.084613 -0.083722 0.032464 0.163834 -0.020549 0.273143 0.366828 0.48966 -0.251432 0.262607 -0.247611 -0.138311 0.547632
除 -0.501271 -0.473171 0.218511 0.191351 0.082138 0.216 0.098729 -0.195511 0.181045 -0.110136 -0.280188 0.049309 -0.453725 -0.142932 0.026273 -0.22504 0.246099 -0.025573 0.062284 -0.119566 0.014402 0.122961 -0.050883 -0.292721 0.025017 -0.40852 -0.214645 -0.044296 0.521805 -0.14029 0.099186 0.247859 -0.189562 -0.0636 0.237648 0.112015 0.064095 -0.103702 0.038911 0.005591 0.369675 -0.292511 0.34352 -0.142252 0.12806 0.049508 -0.075988 -0.185902 0.129991 -0.326523 -0.066542 0.11493 -0.235526 -0.573663 0.272422 0.277833 -0.4463 -0.199785 0.294636 0.161064 -0.253271 -0.026889 -0.041243 -0.035924
巩 -0.197169 -0.213983 0.396777 -0.302123 -0.006391 0.156975 0.156055 -0.008851 -0.421924 0.100141 0.022055 -0.01217 -1.34735 0.980023 0.503971 -0.646613 -0.451987 -0.251548 0.986798 -0.743664 0.317199 -0.134923 0.546859 -0.068043 0.665859 -0.409638 0.609123 -0.248757 -0.879555 0.498025 1.37021 0.049347 0.151181 0.25968 -0.588212 0.577315 -0.006274 -0.228634 -0.315925 -0.299754 0.693019 0.24986 -1.18041 0.4204 -0.063658 0.304962 0.061629 -0.113164 -0.513222 0.342668 -0.341095 -0.081948 0.06254 -0.231644 -0.561986 -0.869233 0.341204 -0.162489 0.059834 0.405742 0.005327 -0.038281 -0.359934 0.403943
惫 0.245908 -0.15227 0.916907 0.688091 -1.39313 -0.409377 -0.316296 0.165274 -0.029786 0.74236 -0.74189 0.040063 -0.411593 -0.018323 -0.233726 0.204912 -0.326323 -0.209752 -0.292952 0.573721 0.440873 -0.179698 -0.26651 0.7629 0.220292 -0.490942 0.365459 -0.523798 0.459749 -0.486469 0.290933 0.459434 1.10171 0.477095 -0.640304 -0.084968 -0.110009 -0.255067 -0.715904 0.04695 -0.627461 0.590167 0.148693 0.268225 -0.439935 0.378337 0.561887 0.556771 -0.420159 -1.07982 0.194332 -0.094371 0.237032 0.783532 0.260374 0.082616 -0.386377 0.370681 0.014712 -0.683738 -0.667587 -0.166014 -0.668225 -0.343941
罪 -0.003789 -0.172148 -0.165239 -0.451528 0.477706 -0.174085 0.608621 0.293926 0.38039 0.154233 -0.42682 0.196735 0.65901 -0.116313 0.189075 -0.047217 -0.18323 -0.474784 -0.113358 0.647426 0.519835 0.10964 -0.677071 -0.268239 0.003491 -0.772607 0.245882 -0.102334 -0.348794 0.444398 0.267717 0.613746 0.177631 -0.683988 0.590127 -0.117904 0.423918 -0.076015 0.039301 -0.093317 -0.18327 -0.053216 0.674984 -1.04574 -0.133726 0.833078 -0.585433 -0.145138 -0.35493 0.237958 0.76663 -0.0193 -0.446189 -1.15024 -0.34071 0.643952 0.256417 0.041029 -0.525411 -0.201085 0.462936 -0.212697 0.00733 -0.79668
揭 0.254657 -0.222773 0.467284 0.697902 -0.196865 -0.216866 -0.174365 0.409106 -0.055179 -0.525633 -0.356726 -0.008356 -0.507736 -0.202018 -0.203571 -0.093267 -0.808897 -0.663782 -0.475923 0.078872 0.755581 -0.207795 0.074218 0.300088 0.403377 0.550021 -1.1535 -0.433907 -0.040042 -0.308298 0.690508 -0.386071 -0.862789 0.378606 -0.147038 0.629703 0.072124 0.144683 -0.29758 -0.144355 0.161971 -0.116852 -0.357194 -0.516655 -0.180228 -0.434035 0.130816 0.166299 0.582358 -0.47742 -0.153513 0.167777 0.255475 -0.17867 0.490712 -0.159874 0.311374 0.707784 -0.223904 0.663852 -0.568339 0.318866 -0.616253 0.251867
扬 0.497058 -0.096716 -0.441554 0.128449 -0.238573 -0.001638 -0.112805 0.244881 0.065515 0.629484 -0.10835 0.066203 0.314681 0.418864 -0.112405 -0.248557 -0.157815 -0.111609 0.124904 -0.234116 -0.570749 0.678989 0.049349 0.234601 0.037008 -0.065265 0.438017 -0.364546 -0.920461 -0.16586 0.168726 -0.285991 0.588203 -0.062713 -0.065798 0.034647 -0.58378 0.22579 0.29574 -0.052932 0.067656 0.184036 0.408132 -0.325661 -0.438165 -0.351843 0.012519 0.668038 -0.422864 0.171075 0.017206 0.251368 -0.508276 0.187267 -0.49183 0.307183 -0.47459 0.166929 0.345619 0.358282 -0.477155 -0.525461 -0.110215 0.326415
衰 0.05168 0.039732 0.097799 0.134423 -0.277452 0.437938 0.811705 0.765405 -0.434943 -0.910907 -0.002198 -0.109623 0.049832 -0.517584 0.564557 0.069952 0.661313 -0.191487 0.38037 0.615247 0.082472 0.0261 -0.320388 0.396514 0.284315 -0.149737 -0.391082 -1.0654 0.578564 1.65139 0.670526 -0.975731 -0.202161 0.042073 -0.561616 -0.786525 0.509135 -0.184147 -0.407162 0.784689 0.11348 -0.127137 -0.1605 -0.063091 -0.002114 0.855905 0.287798 -0.191183 -0.230131 -0.784111 0.01829 -0.532739 1.05932 0.022943 0.173877 0.029946 0.170924 -0.795417 0.953675 0.511582 0.363834 -0.883104 -0.204683 0.210405
泳 -0.221046 1.13017 0.371599 -0.25966 -0.464642 0.302451 0.229533 -0.906712 -0.348348 0.133258 -0.168323 -0.501676 -0.47306 0.305008 -0.320965 0.562715 -0.265452 -0.070141 0.057426 0.357291 -0.3038 0.098295 -0.709549 -0.069449 -0.03153 0.490691 0.254705 0.072116 -0.043626 -0.428933 -0.704567 -0.824826 0.667217 -0.364854 -0.407462 -0.024392 -0.530659 -0.47391 -0.53246 0.200626 -0.409596 -0.456572 -0.966399 0.014818 0.556813 0.12106 0.439507 0.239416 -0.019332 -0.662813 0.264875 -0.050352 0.013551 -0.087502 0.244761 -0.705486 0.174799 0.901095 -0.115571 0.923325 0.045265 -0.162703 0.275871 0.750204
蹴 -0.815914 -0.282982 1.01357 0.133272 -0.344445 0.100942 0.4294 0.842432 0.922757 0.651713 0.763015 -0.505779 -0.016896 0.481372 0.238294 -1.14296 1.17156 -0.26377 1.00436 1.78529 -0.379958 -0.14232 -0.016196 0.951807 0.885589 -1.0565 -0.871438 0.245648 -0.251114 0.138086 0.441851 -0.936123 1.13272 1.06965 -0.594501 -0.34691 0.569407 0.118318 -0.600314 -0.245169 -0.199955 -0.632147 -0.665377 -0.116153 -0.343847 1.60249 0.553445 -0.351091 -0.610909 -2.1666 -0.075749 -0.477352 -0.408282 -1.11087 0.99273 -1.27118 -0.522597 0.234436 -0.087014 1.01003 1.06969 -0.747002 0.273807 -0.421894
其 0.259026 -0.230684 -0.49578 0.088773 0.089657 0.119861 0.032353 0.021982 -0.203991 -0.503936 -0.164028 0.085915 -0.111211 0.396339 0.084938 -0.198682 -0.05441 -0.181627 -0.156421 -0.307633 -0.450482 0.161986 0.022171 -0.086556 0.323417 -0.244213 0.050367 -0.058549 0.223125 0.113279 -0.164561 0.42455 0.209442 0.142928 0.253947 0.230828 -0.261159 -0.21702 -0.292459 -0.178568 -0.019161 -0.033797 0.331916 -0.353478 -0.117785 -0.339191 0.204005 -0.5559 -0.171333 0.135065 0.446111 -0.160469 -0.344358 -0.342349 0.215293 -0.24164 0.377982 -0.113789 -0.146984 -0.045688 0.256213 0.069234 0.487843 -0.286034
闹 0.577073 0.434431 0.029852 0.739783 0.298922 0.263178 -0.095976 0.176293 0.251874 0.276211 -0.819992 0.341263 -0.038568 -0.271446 -0.865192 -0.269517 0.317044 0.037367 -0.19702 -0.393226 0.555712 -0.197893 0.163657 0.29908 -0.408635 -0.526104 -0.209032 -0.073305 0.11501 -0.045042 0.457776 -0.082747 0.888722 -0.195538 0.107458 -0.523342 0.162216 0.23145 0.089327 -0.362109 0.236532 0.313075 -0.110951 0.197226 -1.02339 0.366235 -0.024527 0.503783 0.068146 -0.146121 -0.085789 -0.345747 0.521852 -0.089828 0.183496 -0.530962 0.134979 0.139373 -0.163291 -0.373334 -0.367428 -0.448271 -0.139356 0.42896
驼 0.198891 1.38036 0.417602 -0.268977 0.389322 -0.029626 -0.486413 0.052812 0.86146 0.623784 0.135018 -0.801667 0.113609 -0.074232 -0.030126 -1.04679 -0.397848 -0.199907 -0.201142 0.626325 0.23496 0.029005 -0.454745 -0.281491 0.01477 -0.443238 0.222722 0.144005 0.841126 -0.138292 0.423533 0.033446 0.612203 0.024251 -0.408637 0.230059 0.063087 0.109719 1.10789 0.324808 -0.114763 0.145873 0.522764 0.07111 0.272252 -0.207777 0.038208 0.533852 -0.074575 -0.343422 -0.679424 -0.563297 0.136035 0.06533 0.00806 0.157631 0.079981 -0.102846 -0.173609 0.250338 -0.445249 -0.23246 0.108588 -0.025606
绿 -0.314976 -0.023829 -0.321789 -0.075112 -0.1735 0.020516 0.02609 -0.165758 0.285115 -0.335466 -0.080212 -0.191909 0.064954 -0.173896 -0.530186 0.049254 0.367899 -0.822542 0.035745 -0.064385 0.503243 -0.052993 0.283273 0.585742 -0.283903 0.282678 -0.224342 0.103162 -0.39537 -0.377768 -0.596719 -0.315495 0.153497 0.225354 -0.239229 0.191001 0.112421 0.127309 0.443936 -0.141141 -0.275881 -0.366233 -0.166199 0.563558 0.101201 -0.268669 -0.087723 -0.130846 0.263372 -0.196349 -0.697035 -0.497862 -0.262533 0.299509 0.072421 0.530254 0.369066 -0.182049 -0.154683 0.32002 -0.181493 -0.233666 -0.271039 -0.178891
渔 -0.417369 0.689472 0.299311 0.384765 0.36607 0.347285 -0.205728 -0.706166 -0.014565 -0.540859 0.139216 -0.56136 -0.950216 -0.017677 -0.274598 0.030896 -0.142854 -0.004181 -0.084931 1.02073 0.596945 0.338688 0.114159 0.005922 -0.071258 -0.064582 0.42415 0.120596 -0.190167 0.21821 0.185433 0.178383 -0.161588 -0.613871 -0.161591 0.640806 -0.051817 0.161008 0.762151 0.528928 0.588224 -0.527581 0.086553 -0.212967 0.098364 -0.131205 -0.890506 -0.171684 0.036999 -0.284376 0.351874 0.024246 -0.1111 0.138921 -0.434546 -0.457892 0.360041 0.19331 0.424635 0.047932 0.404317 -0.296583 -0.496997 -0.354979
愁 -0.883511 -0.109732 -0.410929 -0.529126 0.095902 -0.912284 0.738501 0.66011 0.242792 0.497335 -0.589312 0.407433 0.618604 -0.827804 -0.657038 -0.268962 -0.521036 -0.729819 -0.338477 -0.377259 0.524366 -1.04722 1.0959 -0.21651 0.103346 0.304507 -0.013029 0.000922 0.667468 0.478925 0.099411 -0.165565 0.3937 -0.660138 -0.672716 -0.491036 0.434871 0.550693 0.374625 0.541784 -0.575023 0.47772 0.183242 0.006257 -0.104876 -0.150741 -0.14086 0.352899 -0.073006 -0.498139 0.071714 0.408834 -0.488985 -0.252053 0.821081 0.60036 -0.356479 -0.076559 0.137682 0.463361 -0.266909 0.079321 -0.733774 -0.152354
萃 -0.460792 0.727506 0.39143 -0.32167 0.040551 0.231347 0.404914 -0.26446 0.245848 -0.823913 -0.763252 -0.715877 0.621862 -0.552346 0.051409 -1.07698 0.967785 0.654707 -0.461453 0.057164 0.611159 0.838907 -0.316732 -0.711914 -0.188649 -0.650143 -0.618242 -0.731123 -0.371512 0.755088 -0.076774 0.636021 -0.433919 0.715464 -0.813566 -0.306669 0.342214 0.252863 -0.095795 0.035611 0.114808 0.669951 -0.096841 0.040156 0.744633 0.403632 0.230665 0.014408 0.42262 0.101817 0.328253 0.647003 0.269098 -0.254142 0.164833 -0.893913 -0.749084 0.134854 -1.01188 0.413457 0.234749 -0.276975 -1.31936 -0.013584
掂 0.315711 -0.586866 0.428552 0.87003 0.288507 1.04621 0.438896 -0.687175 0.656246 -0.066963 -0.066847 0.517858 1.5917 -0.93704 -0.447198 -1.42742 0.31266 0.02859 -0.850979 0.407915 0.706522 -0.19277 -0.316097 0.362191 0.311954 0.472108 -0.09292 0.127904 0.568622 0.313432 0.128216 0.055322 -0.433142 0.336567 -0.519001 -1.17565 0.464813 -0.826401 -0.218107 -0.020317 -0.17526 0.434074 0.401102 1.13747 0.005605 -0.110545 0.708591 0.285293 -0.176354 0.236616 -0.122696 0.157334 -0.504097 0.335818 0.481034 -0.61232 -1.7245 -0.416779 -1.05399 -0.879944 0.70415 -0.265906 -0.965395 -0.665151
抗 -0.323877 -0.482824 0.19511 0.047753 -0.385917 1.028 -0.28811 0.112686 0.120395 -0.512745 -0.139215 -0.256126 -0.141737 0.032752 -0.062979 0.383072 0.029824 -0.516907 0.313046 0.154843 -0.062441 0.102755 0.002818 0.072547 0.038842 -0.648011 0.342072 -0.089963 0.001269 0.265256 0.422617 0.60331 -0.148955 -0.160883 0.593087 -0.251882 -0.450077 0.005818 0.098365 -0.298846 -0.048742 -0.098541 0.326117 0.070225 0.177792 -0.171182 0.251569 -0.127538 0.656564 -0.098562 -0.2642 0.011155 0.051465 -0.178071 0.386755 -0.12294 -0.034424 0.060219 0.428747 -0.109502 -0.193605 0.315895 -0.089456 -0.279878
覆 -0.638484 -0.115022 0.604786 -0.06766 -0.267813 0.716038 0.538433 -0.045873 -0.495006 -0.545349 -0.572147 -0.06419 0.311036 0.123879 0.702281 -0.252412 0.394667 -0.331281 -0.36537 -0.450342 0.744073 -0.055723 -0.20593 0.302502 0.458414 0.302509 0.446821 -0.140448 0.307911 0.08328 -0.170776 -0.275853 -0.532096 0.545488 0.244143 0.377207 0.169416 0.304328 0.326005 0.17057 -0.370408 -0.211208 -0.071218 0.062079 0.067534 0.088999 -0.241762 0.040932 0.698953 0.085882 0.126506 -0.038747 -0.078833 -0.279344 0.075081 0.483893 -0.102041 0.637349 0.379811 -0.397083 0.24641 0.526904 -0.610834 -0.032587
沈 0.370605 0.522408 -0.010709 -0.242585 0.043135 0.170188 0.478898 0.202075 -0.492053 0.188444 0.193393 -0.108058 -0.551581 0.005826 -0.001025 0.048521 0.361788 0.607457 0.110312 -0.386372 -0.231367 -0.160278 0.467256 0.262946 0.285182 0.384386 0.197924 -0.706132 -0.096044 0.318657 0.03664 -0.039255 -0.198368 -0.126538 -0.775802 -0.263814 -0.887594 0.107434 -0.244205 0.306875 0.019762 -0.080261 -0.081891 0.113211 -0.315208 -0.546155 0.281565 0.512122 0.275686 0.056732 -0.463039 -0.115849 -0.220281 -0.154847 0.365694 -0.432078 0.553143 -0.34564 -0.288516 0.235453 -0.066753 0.349623 -0.394447 -0.75911
》 -0.049993 0.020275 -0.500863 0.350453 0.957898 -0.071045 -0.158541 -0.099703 0.080054 0.619677 -0.187673 0.101788 0.019638 0.470125 0.299723 0.202842 -0.009324 0.009933 -0.342268 0.05713 -0.41639 0.4001 -0.171041 0.073325 0.174427 0.044532 -0.560351 -0.243571 0.472724 -0.310655 0.201057 -0.257527 -0.58467 -0.509933 0.11335 -0.436848 0.132647 0.345073 0.30489 -0.064107 -0.280872 -0.720894 -0.086581 -0.3576 -0.237982 0.257601 -0.436464 0.149811 0.250861 0.44669 0.178165 0.350335 0.092478 0.206451 0.153765 0.101726 -0.113248 -0.175429 -0.650964 0.073578 0.38949 0.124478 -0.079144 0.290308
匍 0.041365 -0.020268 0.656719 -0.375501 -0.234152 0.130201 -0.082236 0.613684 -0.384836 -0.585316 -0.255369 -0.386917 -0.540491 0.008517 0.236196 -0.347307 -0.611105 0.218382 0.010188 -0.058708 0.675434 -0.445606 0.093106 0.070517 -0.318295 0.03099 0.792426 0.374861 0.196346 0.408013 0.397628 -0.413328 -0.673492 0.429012 -1.153 -0.008441 0.084784 -0.464968 0.126304 -0.602727 0.089098 -0.011234 -0.051569 -0.440843 -0.299929 0.629837 -0.276819 -0.116519 -0.413584 -0.619304 -0.208965 0.296188 -0.840293 -0.128573 0.071662 0.591937 -0.66351 0.483904 -0.037659 0.116897 0.74948 0.582551 -0.018713 -0.186562
乃 -0.49223 0.335281 0.005757 -0.328121 0.222973 -0.090836 -0.183616 0.498204 -0.161645 -0.188091 0.148719 -0.265644 -0.374873 0.074122 0.376857 -0.491198 0.100283 -0.132136 -0.151616 0.064891 -0.011313 0.298198 0.266058 0.39859 0.218268 -0.188589 -0.035472 -0.43672 0.185859 -0.053802 0.044042 0.071967 0.151594 -0.219679 -0.123829 -0.165903 -0.040181 -0.048597 0.085627 -0.135676 -0.017795 0.028423 0.054975 0.011 0.110666 -0.472712 0.271503 0.126085 -0.138603 0.252668 0.002 0.191639 -0.015255 0.214014 -0.279733 0.043446 -0.298187 0.217055 0.129506 0.136478 0.19938 -0.49255 -0.122934 -0.048263
睬 -1.16894 -0.396114 0.333728 0.153962 -0.949001 1.33178 1.32639 0.626519 0.558062 0.881727 0.598949 -0.711679 -0.679767 -1.28566 0.565823 0.02822 -0.180442 0.55328 0.36302 -0.11382 -0.137744 -0.525491 -0.092047 -0.380424 1.25574 0.192031 0.457935 0.613406 0.516174 -0.327464 -0.144989 0.284817 0.009274 -0.862286 -0.308033 0.13497 -0.307992 -0.725537 0.7093 -0.566228 -0.029837 1.27595 0.279537 -0.51986 -0.278033 -0.033144 1.07266 -0.527549 -0.230129 -1.02862 0.155384 0.0711 -0.168246 0.761274 0.378699 -0.501392 -0.230885 -0.181931 0.418119 0.576305 0.119177 0.433972 -0.679051 0.613386
颐 -0.17581 0.481834 0.443561 -0.536134 -0.375961 -0.422802 0.273918 0.150407 -0.182731 0.208518 0.161793 -0.840087 0.124468 0.268581 0.489992 0.54648 -0.603149 -0.533226 0.561596 0.123338 0.351138 0.165449 -0.929491 -0.374208 -0.153714 1.11952 1.04345 -0.665621 -0.249946 -0.341618 0.175101 1.00962 -0.529912 -0.206357 -0.442966 0.174272 -0.072279 0.17202 -0.094577 -0.65162 0.018754 0.391121 -0.592328 -0.149874 -0.126665 -0.153654 0.062657 0.480195 0.121207 0.778328 -0.080129 -0.609979 -0.514945 0.231548 0.578545 -0.601167 -0.315639 -0.236227 -0.996138 0.034001 0.004262 0.447133 0.131093 0.37154
缕 -0.162655 0.507603 -0.880621 -0.957258 0.147267 0.001845 1.21017 0.526159 -0.450532 1.03679 0.802083 1.05101 -0.087568 -1.29112 -0.175778 -0.351618 0.358908 -0.822446 -0.748591 0.52714 1.33199 -0.676071 0.048288 -0.475069 -0.257367 0.21313 0.33354 0.193615 -0.102637 -0.37227 -0.684772 0.026195 -0.279357 -0.957148 -1.08849 -0.167788 0.295661 -0.506723 0.410143 -1.34254 -1.03989 0.292605 -0.804726 -0.037368 -0.603842 -1.17932 -0.109946 0.091465 0.594852 -0.039685 -0.077789 -0.941785 0.401354 -0.116165 0.080937 -0.726038 0.271686 0.601927 0.233819 1.14991 -0.180656 -0.004322 -0.269412 -0.794167
应 -0.500698 -0.139692 0.329049 0.047148 0.109496 -0.024529 -0.020137 0.151859 -0.266153 -0.30353 0.047749 0.169084 -0.108489 0.173564 -0.154768 -0.428848 -0.277523 0.098206 -0.183816 0.151721 -0.231248 0.114297 -0.007762 -0.077509 0.123803 0.388928 0.07416 -0.22688 0.233176 0.007253 -0.045821 0.112029 -0.33236 -0.095615 0.843799 0.121883 0.047693 -0.05064 -0.05555 0.161567 0.206526 0.269226 0.184529 0.304484 -0.059735 -0.097777 0.173105 -0.682459 -0.061779 0.305504 0.195909 0.174289 -0.082956 0.219289 0.195762 0.071592 0.07623 0.013933 0.052565 -0.212086 0.176556 0.110362 -0.0079 0.00089
计 0.052302 -0.311898 -0.274344 -0.008999 0.09293 -0.263211 0.010584 0.046243 0.034647 0.06671 -0.166859 0.15246 -0.107417 -0.215413 -0.261518 -0.239747 0.097715 0.115218 -0.28556 0.025241 -0.12414 -0.02442 -0.211308 -0.354096 0.123631 0.036729 0.029671 0.217669 0.096015 0.129669 0.159472 -0.222144 -0.513585 0.126459 0.687243 -0.160801 0.295756 -0.860597 -0.074724 -0.085881 0.276807 -0.28587 0.089429 -0.159985 0.248176 -0.312413 -0.012842 -0.078143 0.306671 0.070918 0.491464 -0.011515 0.091447 0.379105 -0.026972 -0.302411 0.525056 -0.422944 -0.450968 0.117372 -0.116099 0.37441 0.317778 0.135558
浅 -0.357945 -0.127129 -0.730122 0.094962 -0.169029 -1.00172 0.10324 0.025422 0.296055 -0.490104 -0.284306 -0.745682 0.885249 -0.518982 -0.1459 -0.493342 -0.263367 0.05844 0.01472 -0.159589 0.297966 -0.10333 0.234803 0.621539 0.796023 -0.285936 0.39263 -0.370442 0.006536 -0.349055 -0.72237 -0.051461 0.443617 -0.18591 -0.60356 -0.323907 0.701105 0.031511 0.43435 -0.117881 -0.213776 0.04097 -0.091514 0.710139 0.204409 0.63217 -0.113224 0.008556 -0.161215 -0.790713 -0.568639 -0.350123 0.666784 0.608666 0.001442 0.404874 0.189199 -1.05081 -0.455861 0.314694 0.11018 0.198758 0.091949 -0.112555
枚 -0.242751 0.035615 0.239851 -0.556809 0.378033 -0.054318 -0.135436 0.190318 -0.175616 0.294361 0.228083 -0.238893 0.488287 -0.267918 0.168081 0.231861 0.003914 0.369997 -0.10559 0.394051 0.040084 0.126448 -0.786351 -0.519646 0.560211 -0.477679 0.043231 1.37224 -1.48599 -0.006851 -0.154385 -0.47396 0.29591 -0.436551 -0.847667 -0.30532 -0.682143 -0.519705 -0.078343 -0.517032 -0.08686 -0.355419 -0.350217 -0.156271 0.118578 0.348925 0.723627 0.144875 0.449774 0.313586 0.548537 -0.226912 -0.68709 -0.618748 0.179635 0.322871 -0.361157 0.430946 0.451294 0.33122 -0.281549 0.208309 0.628373 -0.222656
灵 -0.108191 -0.108236 0.196589 -0.108627 0.302903 0.018096 -0.387446 0.224346 -0.039546 0.455457 0.053061 -0.848464 0.316963 -0.103119 -0.469588 0.245202 0.208807 -0.423476 -0.273661 -0.212788 -0.038457 0.086874 0.141024 -0.021924 -0.280022 0.1986 -0.375122 -0.027456 0.079887 0.305537 0.016539 0.53105 -0.067977 -0.054724 -0.120563 -0.457549 -0.217502 0.056875 -0.184745 0.075974 -0.390488 0.452448 -0.539969 -0.285989 0.110949 0.18271 0.058703 0.274131 0.046243 0.188193 0.132035 -0.107655 -0.063548 0.236532 -0.350111 0.129373 0.228532 0.003266 0.356004 -0.288736 0.147394 0.147274 -0.330663 -0.043508
玮 0.438168 1.63223 0.587802 -0.364659 -0.739686 0.436416 -0.336852 -0.111471 0.595988 0.356689 0.339689 -0.133678 -0.414598 0.502126 -0.352727 -0.789051 0.038083 0.217197 -0.376523 0.544219 -0.666863 -0.370884 -0.216987 -0.586716 -0.535572 -0.301391 0.4267 -0.582994 0.475273 -0.161564 -0.599501 -0.163197 -0.057776 -0.621645 -0.611741 -0.185606 -0.070326 -0.490086 -0.281619 0.130435 -0.074778 -0.192719 -0.312427 0.402503 -0.513083 -0.607682 -0.505435 0.30843 -0.448595 -0.81846 -0.333203 -0.059965 -0.122657 0.323048 -0.597402 0.101489 -0.092305 0.14877 0.283387 0.697467 0.778034 0.96146 -0.301325 0.208681
峄 -0.076855 0.035568 1.21431 0.006264 -0.265507 0.284307 0.494813 0.379016 0.328949 -0.50967 -0.382224 -1.10482 -0.581141 -0.232207 0.214437 -0.501289 -0.058098 -0.55049 -0.17002 0.431958 0.315808 -0.27589 0.137571 0.007843 0.388291 1.06333 -0.217065 -0.518285 -0.321307 -0.143677 0.172602 0.50938 -0.02317 -0.117687 -0.823611 0.451561 -0.07768 0.769865 0.04439 0.41166 0.359308 0.387786 -0.385766 -0.294643 -0.697291 -0.349293 -0.055144 0.741851 0.167201 -0.742549 0.021329 -0.246934 0.578034 0.074962 -0.115898 -0.028067 -0.229011 -0.538634 -1.13083 0.381367 -0.153355 -0.118339 -0.143679 0.656178
儡 0.707039 0.566103 0.900975 0.04468 -0.634056 1.35615 -0.521362 -0.489263 0.071822 0.366427 0.624078 -0.555479 -0.918896 -0.215049 0.240281 0.140735 -0.065967 0.554496 -0.094758 0.469374 0.724155 -0.248779 0.156339 -0.608374 0.293831 -0.507359 -0.698308 0.023406 0.764419 -0.105039 1.32268 0.659494 -0.905061 0.649538 -0.612572 0.142843 0.068465 -0.908186 0.063398 -1.05177 -0.076027 0.25125 0.299126 0.939701 -0.30312 -0.054172 0.292029 0.022015 0.494178 -1.36246 0.977572 -0.301692 0.17728 -1.18693 0.712142 0.368208 -0.602402 -0.779927 -0.291085 -0.906431 -0.739112 -0.24467 0.084281 0.000213
厢 -0.34689 -0.064415 -0.090942 0.309815 0.613152 -0.222629 0.831928 0.061285 0.281934 0.785519 0.154503 0.507675 -0.914489 0.40407 0.300439 0.139647 -0.101189 -0.025453 -0.598759 -0.356147 0.188272 -0.602707 0.141893 -0.004968 -0.153501 0.644862 -0.554099 0.125723 0.713404 0.262284 -0.920437 -0.061141 0.70974 0.260103 -0.5242 0.385476 0.119711 0.27031 0.993644 -0.160605 0.069915 -0.023551 -0.002472 0.915123 0.053021 0.408767 0.135558 0.189456 -0.163107 -0.587359 0.619273 0.24344 0.217 -0.015991 0.230527 -0.72467 -0.532931 1.19099 0.242646 0.660885 -0.383164 -0.421427 -0.010075 -0.788352
遇 -0.233544 0.252709 0.017236 0.220666 0.103199 -0.159195 -0.088454 0.252485 0.332877 -0.154108 -0.126262 -0.22487 -0.332259 0.146329 -0.414141 0.066356 0.201922 0.432649 0.457107 0.091827 -0.037211 0.241388 -0.276941 -0.111181 0.093717 -0.102206 0.394965 0.242019 0.261142 0.142603 -0.095102 -0.300992 0.352919 -0.687686 0.682439 -0.211583 0.142079 0.084615 -0.414414 -0.032196 -0.158299 0.052547 0.403341 -0.625936 -0.01835 0.030566 -0.136248 0.049029 0.205679 -0.34671 -0.38137 0.008168 -0.134855 -0.163473 0.762009 -0.194681 -0.206709 0.540394 -0.031102 -0.209861 0.108894 -0.103351 -0.046622 -0.397762
崩 -0.267331 -0.563027 0.12087 0.189074 -0.342815 -0.103713 0.347437 0.197189 0.52451 -0.24771 0.091873 -0.303174 -0.305652 0.175959 0.207273 0.029298 -0.117959 -0.32166 0.273219 0.438665 0.916566 -0.186382 0.322155 0.672456 0.239712 -0.642388 -0.161427 -0.349875 0.076502 -0.083206 0.304885 0.486719 0.053116 0.015388 -0.520613 -0.006694 0.569868 -0.231574 -0.252994 -0.343657 -0.67327 0.350212 -0.044113 -0.859607 0.0974 0.032265 -0.635775 0.79472 0.846031 -0.992335 0.246481 -0.14287 0.258378 -0.026007 -0.576747 0.363719 0.328628 0.539625 0.917685 0.218567 -0.007721 0.089888 0.310792 -0.013285
鲨 -0.202235 0.610596 0.33545 0.098454 -0.361557 -0.00732 0.49311 -0.17585 -0.012277 0.643014 0.296772 -0.900952 0.609557 0.024484 1.02268 0.419595 -0.476331 -0.096176 -0.369713 0.23192 0.690724 0.404831 -0.112114 0.244625 -0.705201 -0.395461 0.427193 0.736703 0.494132 0.004198 0.103183 0.068862 0.202384 -0.548488 -0.055477 0.385927 -0.462666 0.019674 -0.021469 -0.393084 0.037909 -0.38917 -0.279741 -0.383106 -0.309838 0.386345 0.053064 0.279373 0.150396 -0.100807 -1.07342 -0.714725 0.393736 -0.672899 0.562781 0.209612 0.762171 0.12269 -0.363633 -0.366986 0.100233 0.83592 0.135463 0.110585
循 -0.333847 -0.636358 0.401825 0.19603 0.436769 0.245128 0.664921 -0.312016 0.458303 0.076333 -0.039221 0.153268 -0.222526 -2.6e-05 0.651492 -0.630093 -0.264855 -0.569268 -0.239164 0.25734 -0.034552 -0.091893 -0.604419 0.33387 -0.437919 -0.148646 0.748476 -0.193125 -0.311225 0.10222 0.217448 0.139506 0.403003 0.121246 0.241745 -0.183942 -0.378593 -0.208807 0.070098 0.10186 -0.517835 0.216086 -0.084833 0.111193 -0.354311 0.461573 0.283732 -0.001293 -0.956351 0.425279 -0.707457 -0.396542 0.000547 0.275708 0.080794 0.14038 0.03874 0.114078 0.408491 -0.165525 0.203893 -0.379658 0.412707 -0.243047
芬 0.127361 0.277681 0.19292 -0.633426 -0.79883 -0.578884 -0.384137 -0.250114 0.409953 0.29287 0.121718 -0.229367 0.097279 0.224613 -0.260139 0.056678 0.144347 0.118083 0.633811 -0.093224 -0.227543 -0.209598 0.346996 -0.285038 0.137143 -0.412373 0.27309 0.432851 0.175677 0.074603 0.146748 -0.352483 -0.099801 0.180976 -0.311552 -0.087096 -0.168338 0.29208 -0.52111 -0.114233 -0.431186 -0.313214 -0.221758 -0.021037 -0.259616 -0.464159 0.011922 -0.030405 0.243709 0.443565 -0.480612 0.198522 -0.220977 -0.516416 -0.42951 0.065696 -0.09198 0.209716 -0.640558 0.2294 -0.150666 -0.320963 -0.637562 -0.418412
是 -0.082416 -0.128992 -0.012985 0.358389 0.631644 -0.348831 0.049683 0.195128 0.151509 -0.014425 -0.044238 -0.075662 -0.028129 0.169632 0.041992 -0.29874 0.32638 -0.07355 -0.186114 0.202444 -0.366327 -0.089932 0.285716 -0.164409 -0.124185 -0.094789 -0.007371 0.305442 0.419488 -0.157107 -0.113511 -0.044502 0.028559 -0.054395 0.329505 0.06288 0.048205 0.155475 -0.50774 -0.008892 0.027453 -0.263472 0.181371 -0.281418 -0.044559 -0.481438 0.470587 -0.527622 0.058704 0.26978 -0.097278 0.172311 0.133941 0.069676 0.407928 0.042657 -0.195355 -0.21346 0.500744 -0.222734 0.143575 -0.102507 0.4054 0.340595
械 0.633212 -0.162924 0.095357 0.226817 0.258595 0.75781 -0.282937 -0.225518 -0.207618 0.46839 -0.128814 -0.576346 -0.096597 0.102435 -0.299106 0.129464 0.074761 -0.318464 -0.2016 -0.374298 0.174184 -0.411041 0.311682 -0.925538 -0.52744 0.360734 0.323397 0.087292 -0.034194 -0.027379 0.506377 0.111481 0.727204 0.760311 0.202923 -0.15315 -0.104467 -1.17049 0.133333 0.394987 -0.049839 0.193572 0.721623 0.072987 0.536271 0.698503 -0.125883 0.476697 -0.230937 0.316278 0.673535 -0.019324 0.726289 0.117054 -0.372628 -0.294357 -0.592509 -0.224614 -0.587325 0.023709 0.351882 0.524159 0.738985 0.295438
讲 0.198637 0.094475 0.260714 0.355522 0.417653 0.197076 0.502458 0.008379 -0.145847 0.341597 -0.469304 0.113797 0.08739 -0.391159 -0.107372 0.247001 -0.197484 0.405985 0.153421 -0.542655 0.178986 0.015269 0.184924 0.536165 0.412099 0.339088 -0.398691 -0.242681 -0.096004 -0.724404 0.632804 -0.332988 0.181288 -0.338072 0.756666 -0.031879 0.125842 0.430852 0.085703 -0.55063 0.011323 0.273137 -0.197852 -0.187754 0.325205 -0.249663 -0.080251 -0.662749 -0.091787 0.44464 0.11239 -0.337417 0.089919 0.529369 -0.021257 0.001435 -0.185314 -0.144635 -0.108876 0.241725 0.018165 -0.200971 0.265358 0.300587
废 -0.280416 -0.725072 0.732257 -0.001899 -0.661139 0.271068 -0.153742 0.017539 -0.360509 -0.315702 -0.004099 0.176122 -0.770456 -0.153933 0.561068 0.020448 0.57182 0.122257 -0.413625 -0.032077 0.451042 -0.020521 -0.168448 -0.455956 0.291797 -0.098186 0.685145 -0.284527 -0.083163 0.100932 0.085862 0.318952 0.064757 -0.13762 0.146037 -0.314064 0.257377 0.064876 0.286909 -0.126897 -0.44361 -0.24321 -0.005964 -0.204818 -0.209329 0.6898 0.474017 -0.047433 0.043894 -0.691254 0.875099 0.677979 -0.512286 -0.47381 0.176991 0.561036 0.332606 -0.165347 0.159461 0.090053 -0.187807 -1.0347 -0.23172 -0.115487
刷 0.383795 -0.202883 0.573942 0.954963 0.391253 0.043946 0.871081 -0.393066 -0.45303 0.043221 -0.048887 0.439535 0.016189 -0.08238 0.239208 -0.488366 0.84516 -0.017708 0.336714 0.172974 0.703835 0.012973 0.041992 -0.561183 -0.415126 -0.070077 -0.130063 -0.085776 -0.497021 -0.102821 -0.091295 -0.36156 0.178561 0.259136 -0.180244 0.094914 0.536969 0.040905 0.113322 -0.088558 -0.087033 0.114481 -0.047235 -0.092512 0.343283 0.577756 0.360082 -0.157731 0.440545 0.140457 -0.099643 -0.626314 0.039483 -0.2922 -0.252477 0.245382 -0.627811 -0.085542 -0.237991 0.362413 -0.249317 0.229971 -0.28145 -0.113803
冶 0.054898 0.410258 -0.016847 -0.503038 -0.517374 0.197263 -0.914076 0.196136 0.810971 0.63745 -0.080357 -0.82112 -0.59979 -0.180277 -0.582722 0.075288 0.255904 0.009486 -0.435017 -0.971621 0.871923 -0.227975 0.391502 -0.160707 0.18804 -0.717456 0.000914 0.01289 0.169131 -0.372528 0.139242 0.218923 0.252301 0.183746 -0.511078 0.215995 0.419297 -0.677162 0.123605 -0.080206 -0.33229 -0.588912 0.223803 -0.047051 0.732175 -0.327079 0.395848 0.60856 0.078389 0.121931 -0.027176 -0.250149 -0.102121 0.76422 -0.014443 -1.01432 0.098538 0.19358 0.191982 0.621249 0.38919 -0.279894 0.235587 0.335763
咸 -0.531255 0.05226 0.065994 0.098644 -0.754606 -0.265602 0.44945 -0.15009 -0.708006 0.718925 0.070233 -0.428199 -0.576849 -0.177462 0.235594 -0.351836 0.195154 0.077717 -0.129979 0.150963 -0.170438 0.533037 0.115018 0.575511 0.012128 -0.354582 0.278108 0.428514 0.269796 -0.811314 -0.469428 0.270656 0.514731 0.39736 -0.757862 -0.010676 -0.147288 -0.283454 0.70347 -0.246626 0.371232 0.706338 -0.510907 0.036493 -0.37375 0.171773 0.279986 0.161608 0.658775 0.723267 -0.886508 0.016641 -0.295792 0.060353 -0.133924 0.487087 0.271897 -0.17537 -0.205506 0.05354 -0.322506 -0.998993 -0.639589 -0.30537
贞 0.549124 -0.145808 0.813461 -0.543739 -0.250862 -0.14756 -0.129763 0.600049 0.126989 0.769384 0.303248 -0.132451 0.304876 -0.18914 0.417301 0.552272 -0.298096 -0.240894 0.296206 0.027131 -0.095904 -0.154173 0.340778 -0.018211 -0.107151 0.06546 -0.287156 -0.358083 0.582586 0.399149 -0.024531 0.255205 0.52013 0.08418 -0.868873 0.114946 -0.272841 -0.105215 -0.40108 0.046699 0.046256 0.322387 -0.486767 -0.270714 0.030096 -0.100174 -0.333591 -0.47042 0.20798 0.219314 -0.130519 0.798822 -0.04095 -0.058223 -0.176244 -0.258204 0.100934 0.231015 0.030787 0.019779 0.870852 -0.130029 -0.160148 -0.304198
骼 0.693967 0.127842 -1.15227 -0.14969 0.13087 0.310464 0.229374 0.158847 -0.787568 0.23845 0.776375 -0.892268 -0.234467 0.710879 0.033494 0.362971 0.100774 -0.176168 -0.23831 0.465965 0.29889 -0.910969 -0.727037 -0.170688 -0.544475 -0.235433 -0.711667 -0.93675 0.118709 0.34664 1.10228 -0.227268 0.284345 1.04193 -0.292811 0.52216 0.03952 -0.282081 0.604035 -1.19809 -0.325556 0.497725 0.251438 -0.380634 0.408752 -0.04658 0.377595 0.360879 0.277213 -0.104431 -0.863438 0.303785 0.245094 0.360525 -0.248964 -0.369739 -0.56158 0.685179 -0.480114 0.732754 0.210485 0.430016 0.470118 0.549902
鸿 0.388698 0.392651 0.407051 -0.477797 -0.424241 -0.223729 -0.314931 -0.028357 -0.196282 0.584706 0.423406 0.097896 0.456964 0.609658 0.203821 -0.106643 -0.291143 -0.498234 0.352474 0.336225 0.155286 -0.165283 0.178209 0.108741 -0.491569 0.231823 -0.088541 -0.698693 -0.625826 0.032704 0.115806 -0.00858 -0.171701 -0.646926 -0.239765 0.094774 -0.486405 0.365141 0.195471 0.077122 0.00651 -0.071037 -0.082713 -0.054636 -0.418927 -0.347479 0.037477 0.470726 0.491997 -0.337291 -0.118664 -0.720958 -0.369586 0.750874 0.179418 -0.329264 -0.727508 -0.170422 0.036581 0.409052 0.280252 0.051121 -0.313201 0.193767
必 -0.560323 0.048302 0.181131 0.38082 5.1e-05 0.153219 0.06252 0.530067 -0.112111 -0.171511 0.075074 -0.039072 -0.132868 0.054934 -0.064737 -0.419737 -0.317403 0.082147 0.132514 0.16372 0.30594 -0.10793 0.061931 -0.023921 -0.001694 0.060378 0.365659 -0.075378 0.576246 -0.264118 0.043985 -0.129314 -0.140441 -0.380961 0.705195 0.130091 0.051385 0.126569 -0.375918 0.175455 -0.096774 0.384501 -0.134246 -0.007533 0.203378 0.114564 0.244343 -0.599975 0.177367 -0.049608 0.396026 0.249328 -0.324214 -0.113418 -0.154095 -0.053256 -0.031025 -0.053543 -0.030813 -0.242476 0.245561 0.04978 0.179867 0.393428
胀 0.296648 -1.21385 -0.223578 0.028283 -0.507068 0.52822 0.496309 0.482859 -0.274032 0.253315 -0.387199 0.040238 0.980753 -0.003773 -0.547503 -0.617947 0.267585 0.101973 -0.262447 0.24329 -0.013885 0.08824 -0.382883 -0.352052 0.322486 0.234493 0.482072 -0.413682 0.349705 -0.012052 0.079924 0.353395 0.941543 0.167788 -0.187941 -0.868 0.476018 -0.540216 -0.409208 0.638727 0.854792 -0.464276 0.040996 0.041784 -0.739128 0.581101 0.127057 0.974314 -0.223059 -0.190166 -0.095234 -0.757251 0.582932 0.24921 -0.045407 -0.067723 0.534899 0.495135 -0.165319 -0.474247 0.230071 -0.421906 -0.122315 -0.264382
蛄 -0.108485 0.55267 -0.61154 -0.479137 -0.175879 0.482125 -0.271388 0.267425 0.104399 0.626361 0.727084 -0.980475 -0.79162 0.114729 0.484663 0.056971 0.609374 0.728083 -0.649582 0.447758 0.743994 -0.294236 0.01685 -0.738338 -0.31214 -0.248315 0.881388 0.550503 0.068741 -0.022756 1.00624 0.534404 -0.001441 0.055122 -1.09246 -0.832793 -0.725695 -0.330041 0.163011 -0.505869 0.178219 -0.049931 -0.372281 -0.217486 -0.234951 0.087117 0.790224 0.172374 -0.099828 -0.223124 -0.813157 -0.454822 0.050809 -0.312508 -0.199081 0.461532 -0.460191 0.152041 -0.995881 0.289725 0.669231 0.404193 0.348675 0.236562
视 0.610992 -0.024571 0.21819 0.296508 0.464942 -0.110659 0.421614 -0.14443 -0.303213 -0.136241 -0.461088 0.136111 0.387394 -0.328705 0.33732 0.357467 0.333295 0.153766 0.217218 -0.079218 -0.680495 0.618167 0.111204 0.04276 0.015146 -0.190268 -0.025569 -0.480991 0.034031 -0.639639 -0.246833 -0.368048 -0.150671 -0.173476 -0.038763 0.234168 0.048731 -0.467373 -0.241509 -0.220088 0.386466 0.046281 0.162903 0.293094 0.161118 0.280001 -0.290262 -0.02669 -0.022218 -0.032286 0.378772 -0.115838 -0.123038 0.02784 0.440412 -0.258395 0.424437 0.456385 0.386512 -0.140432 0.018423 0.068609 0.127073 0.275785
及 -0.113112 -0.142927 0.194903 0.027825 0.414521 0.009695 0.174309 -0.158667 0.185451 -0.226854 -0.242124 -0.06736 -0.047041 0.047356 0.21341 0.312615 0.378085 -0.204153 -0.062437 0.340463 -0.215039 -0.119819 0.518609 -0.084931 -0.378298 0.153436 0.005226 0.115846 0.281309 -0.304085 -0.215105 0.238145 -0.061518 0.132101 0.207435 -0.105676 0.032109 -0.313266 0.128449 -0.139751 0.25894 -0.383686 0.231304 -0.316843 0.200105 -0.453331 0.294653 0.179084 -0.127577 0.254268 0.07806 0.081441 0.108441 0.050479 0.217178 0.056228 -0.180232 -0.194376 0.296771 0.15407 0.448193 0.061924 0.431682 0.339767
俊 0.154954 0.474265 0.515833 -0.606557 -0.630048 -0.335977 -0.747728 0.432545 0.08954 0.612945 -0.036716 -0.354588 0.181376 0.248659 0.289231 -0.77166 -0.228952 0.047377 0.835199 0.200615 -0.05414 0.075727 -0.052824 -0.516324 -0.238789 0.098978 0.095652 -0.037102 0.030619 0.127023 -0.424455 -0.311811 0.548546 -0.270129 -0.072491 -0.109981 -0.104698 0.448703 0.00944 0.257811 -0.14642 0.323178 -0.151928 0.083873 -0.014967 -0.316243 -0.472104 0.11253 0.211864 0.596459 0.089658 0.276144 -0.325668 -0.098878 -0.185642 -0.054486 -0.662702 0.224807 0.232625 0.51192 0.764974 -0.277894 -0.316485 0.157199
契 0.276197 0.008429 0.628003 -0.284504 0.507181 -0.439749 -0.279211 0.121853 -0.229134 -0.101763 0.536769 -0.068891 0.661091 -0.592344 0.531027 0.598448 0.099362 0.014119 0.128997 0.042602 0.227173 0.025075 -0.141661 0.431001 0.486928 -0.018823 0.900962 0.630403 0.692743 0.166236 0.363821 -0.415191 0.315873 0.020589 -0.641757 -0.127057 0.407543 -0.140677 -0.037617 0.474326 0.134201 -0.061109 -0.211434 0.227515 0.402081 -0.206842 0.314235 -0.388855 -0.061039 0.025728 0.483933 -0.016023 0.1447 0.280035 -0.070429 -0.082299 -0.106624 -0.156025 -0.47121 -0.330084 -0.12673 0.577799 -0.391262 -0.018381
磐 0.429815 -0.421355 1.71012 -0.556725 -0.304508 -0.071916 0.288622 0.926964 0.65026 -0.012914 0.438549 -1.10838 0.162301 0.687177 0.287492 -0.646591 0.371669 0.208123 -0.886348 -0.404672 -0.409284 -0.310543 0.150107 0.974567 0.139313 0.322014 0.241174 0.118882 -0.330937 -0.455422 -0.166953 0.637202 0.672919 0.054132 -1.03498 0.672805 -0.335253 -0.826666 0.203204 0.295516 -0.127488 0.117492 -0.010917 0.05792 0.007159 0.976066 0.668399 0.247643 -0.074847 -0.637621 -0.642389 0.597954 0.009779 0.245441 -0.410188 0.248985 0.465327 -0.174534 0.249482 -0.123463 0.730859 0.541511 0.643235 0.41909
寒 0.083928 -0.511119 0.437791 0.440742 -0.327638 -0.003466 -0.49528 -0.515629 0.244097 0.458745 -0.419637 -0.342842 0.000966 0.006349 -0.507612 0.314594 -0.538711 -0.022558 0.447245 0.079307 0.61737 0.161744 -0.051169 0.181557 -0.07621 0.537563 0.478234 -0.29631 0.737358 0.485172 -0.004524 0.406843 0.212406 -0.554078 0.096042 -0.419493 -0.198777 -0.029063 -0.48694 -0.016321 -0.082705 -0.197131 -0.575541 0.066831 -0.281799 -0.458386 -0.204539 -0.166635 0.505134 -0.649537 -0.677691 0.102745 0.289706 -0.22748 0.587543 0.342583 -0.25097 -0.11794 0.526994 0.430135 0.279043 -0.13735 -0.360211 -0.172727
录 0.043658 -0.004302 0.212854 0.232267 0.583445 -0.15208 0.206792 -0.17161 -0.078083 -0.228736 -0.307302 0.436704 0.018407 -0.006872 0.472071 -0.034722 0.030169 0.524623 -0.923626 -0.419794 -0.403971 0.602593 -0.120199 -0.119277 0.080036 -0.102039 -0.331818 -0.428238 -0.102195 0.360305 -0.059453 0.126983 -0.066964 -0.062132 0.120184 -0.469845 0.054319 -0.077297 0.284275 -0.452023 0.006179 0.279471 -0.188142 -0.147813 0.344508 0.476355 -0.370998 -0.383103 -0.081279 0.129464 0.011427 0.317488 -0.117078 0.171623 0.001281 -0.321785 0.176306 -0.002118 -0.262639 0.272238 -0.428863 0.489367 -0.076178 0.137439
黔 0.003529 0.699868 0.143079 -0.258353 0.289094 0.156965 0.087458 0.307009 0.358881 0.016564 0.416879 0.040728 -0.366904 0.034577 -0.347234 -0.32876 0.490051 0.405621 -0.054215 -0.325585 0.544774 -1.06195 0.304184 0.552191 0.125571 0.235901 -0.525738 -0.538614 -0.293035 -0.404735 -0.037516 0.959088 0.449732 0.553555 -1.10663 -0.131526 0.226294 -0.612929 0.409058 -0.028837 -0.655291 -0.523097 -0.968125 -0.356941 0.319284 0.946379 -0.119068 -0.085955 0.749392 0.813077 -0.880356 -0.451477 -0.398974 -0.480301 -0.741901 -0.169096 0.028817 -0.219871 -0.399247 -0.096199 -0.740098 -0.820237 0.186507 -0.153031
酸 -0.533563 -0.329334 -1.01176 -0.022334 -0.054132 0.267874 -0.313588 0.185181 0.284422 0.099526 1.02918 -0.06126 0.091053 0.36885 -0.596831 0.157707 -0.055477 -0.260918 -0.166317 -0.310982 0.435434 -0.036364 -0.515074 -0.624369 -0.432141 -0.222502 0.527406 0.081211 -0.076467 0.647261 0.319959 -0.188504 0.277853 0.218726 -0.280039 -0.095681 -0.00985 -0.985724 0.26316 -0.954049 0.09313 -0.01511 -0.360165 0.461119 -0.207192 -0.077676 0.500755 -0.266726 0.013279 0.378915 -1.09045 -0.746904 0.264309 0.159047 -0.052793 0.555252 -0.216917 0.831678 0.888381 0.176209 0.062765 -0.663924 0.231474 -0.07956
教 0.132905 0.176837 -0.157469 -0.03914 0.363916 0.120957 0.250955 -0.587912 0.355375 -0.237718 0.065358 -0.398776 -0.021511 -0.489645 0.568802 0.337847 -0.282503 0.095725 0.445506 -0.259564 -0.159586 0.009989 0.196926 0.360521 -0.012749 0.52069 -0.606128 -0.151842 -0.138298 -0.021402 0.593564 -0.200947 0.254354 -0.032494 0.843812 -0.233912 -0.376981 0.086593 0.112656 -0.057434 -0.053375 0.239469 0.181038 -0.219934 0.257637 -0.674892 0.157208 -0.348868 -0.138594 0.379746 0.311587 -0.112479 -0.162946 0.382447 -0.39926 0.197868 0.271749 -0.200665 0.166349 0.192518 0.24865 0.0233 -0.226585 0.275895
擘 0.009756 1.24324 -0.14706 -0.726792 0.039176 -0.182288 -0.148847 0.968211 0.6794 0.277927 -0.431061 -0.097226 0.940539 -0.855201 -0.310076 -0.95532 0.09401 0.318896 -0.34995 0.417582 0.30956 -0.770078 0.302915 0.505121 0.187293 0.828913 -0.356527 0.495005 0.49147 -0.190995 0.358634 -0.291465 -0.306057 -0.164102 -1.1446 0.31105 0.543221 0.143877 0.283454 -0.937613 0.202619 0.066374 0.339733 0.17477 -0.127612 0.956848 1.15786 0.077842 0.217707 -0.545463 0.234525 -0.51268 0.256351 0.357309 0.597784 0.21204 -0.564053 -0.274956 -1.02624 0.637043 -0.112233 0.47393 -0.54513 -0.681138
柚 -0.29124 -0.327289 0.186892 -0.137325 0.437026 0.566518 -0.544203 0.596459 0.413195 -0.413388 0.785902 -0.437735 0.070918 0.2651 0.509348 0.73999 0.047343 0.237024 -0.489391 0.272262 0.571741 0.196218 0.131908 -0.769297 -0.73247 0.193259 -0.49895 -0.0962 0.151338 0.593026 0.25589 0.081078 -0.133861 0.504891 -0.994166 0.953742 0.174518 0.468407 -0.010902 -0.262728 0.493026 0.114096 -0.919843 0.748282 0.399211 -0.276373 0.546026 0.03972 -0.434916 -0.246334 -0.612043 0.179887 -0.055086 0.517626 -0.322543 0.049241 -0.348932 -0.053982 0.321713 0.000148 -0.026376 -0.026788 -0.260678 -0.271271
乍 -0.23278 0.64239 0.324422 0.40043 -0.586663 0.100234 0.696698 0.252332 0.171053 0.501526 0.533577 0.687865 0.224902 0.158064 -0.405613 -0.086763 0.412377 0.00082 0.205613 -0.958352 -0.521612 -0.726797 0.521797 -0.380767 0.541004 0.197668 0.15178 0.781531 -0.287055 -0.425594 0.608047 0.144934 0.407465 -0.852911 -0.854113 0.322297 0.464048 0.676119 0.033809 -0.14263 0.61059 0.46199 -0.059856 0.457416 -0.433011 -0.310709 -0.627601 0.521035 0.937226 0.446063 -0.212751 -1.62908 -1.07139 0.080102 0.909608 -0.090639 0.007223 0.660589 -1.17904 -0.133288 0.742987 -0.628708 0.355117 0.504852
跻 -0.136116 1.07032 -0.275156 0.888422 -0.304559 -0.127146 -0.079388 0.218115 0.071238 1.32484 -1.14759 0.008085 -0.650392 0.359457 0.552014 -0.488038 0.261137 -0.968016 0.740135 0.471923 0.565979 -0.334012 -0.35456 0.58312 -0.337326 -0.128399 0.375862 -0.328185 0.091129 0.284024 0.615735 -0.104586 -0.135266 1.12286 -0.129516 -0.17387 -0.096097 0.209364 -0.343563 -0.418344 0.460292 0.620205 -0.690867 -0.048239 -0.004011 0.414892 0.852765 0.602664 0.372547 -0.753992 0.654015 -0.259222 -0.888359 0.064398 -0.245779 0.574352 0.552845 0.630892 0.138426 0.231947 -0.045156 0.556125 0.645779 -0.449509
也 -0.257822 -0.056535 -0.259442 0.663018 0.355259 -0.117936 -0.166275 0.677064 -0.361838 -0.118597 0.09538 0.169167 -0.096489 0.446364 -0.06575 -0.190461 0.068759 -0.153927 -0.141468 0.282474 -0.025935 -0.125612 0.342166 -0.194539 0.150624 0.149864 -0.182197 -0.090795 0.663906 -0.328709 -0.217714 -0.498826 -0.257198 -0.132704 0.725173 -0.000297 0.009586 0.135166 -0.397327 0.15299 0.054775 0.30633 0.387454 -0.112673 -0.100902 -0.164458 0.338963 -0.290122 0.076825 0.291969 0.074492 0.296491 -0.051777 0.367427 0.022196 0.037029 -0.009934 0.153124 -0.418529 -0.213413 0.456134 -0.171926 0.110507 0.309192
艺 0.371147 -0.063425 0.211787 0.08482 0.298641 0.098558 -0.349053 -0.498281 0.11823 -0.17231 -0.419787 -0.268403 0.031651 -0.186862 0.08976 0.285448 0.776888 0.335013 0.085981 0.310646 0.034988 -0.021788 0.192089 0.376353 -0.654486 0.069581 -0.647939 -0.352325 -0.039368 -0.14733 0.16377 -0.390029 0.206441 0.354853 0.268503 -0.258859 -0.135646 0.332626 0.073281 -0.64899 -0.404739 0.05849 -0.14143 0.343726 0.560804 -0.077475 0.107118 -0.204935 0.119932 0.318655 0.566396 0.114086 -0.058779 0.321041 -0.086009 -0.54898 0.392717 -0.004171 -0.323162 0.134668 0.161294 -0.210825 -0.45866 0.044055
睥 -0.161631 0.760651 0.321188 -0.658586 -0.620242 0.456017 -0.376375 0.199973 0.106493 -0.451066 -0.049805 0.10804 0.323003 -0.346454 0.197928 -0.884917 -0.401022 0.359408 -0.210475 0.445043 1.09056 -0.079659 -0.047467 0.360763 -0.03264 -0.116243 0.456929 0.569054 0.296622 -0.090114 0.704041 -0.071042 -0.417016 -0.079698 -1.21729 -0.069102 -0.187687 0.065938 0.101611 -0.575476 0.031536 0.946889 -0.241334 -0.039936 -0.339691 0.417202 0.260643 0.777195 -0.222095 -0.636024 0.118692 -0.063424 0.032794 0.111741 0.247426 -0.132886 -0.665059 0.549024 -0.55105 0.405308 0.456567 -0.266478 -0.215232 -0.102052
囤 -0.686974 0.290357 0.482631 0.393101 -0.219117 -0.008926 -0.00167 -0.097516 0.008727 -0.14153 -0.08206 1.13732 0.504812 0.457382 -0.365422 -0.186853 -0.176589 0.339566 -0.016061 -0.381506 0.783661 -0.429457 0.174893 0.085145 -0.650372 -0.086897 1.29239 -0.155455 -0.02058 0.55985 0.700915 -0.46811 0.407998 0.024079 -0.378511 0.571292 -0.465603 0.114194 0.504812 0.065828 0.46309 -1.16161 0.075149 -0.189881 -0.258474 -0.285922 0.7336 0.49423 0.714729 -0.926326 -0.400156 0.058294 -0.108897 0.008985 -0.115931 0.549102 -0.385923 -0.090274 0.081976 -0.955613 0.526494 0.043425 -0.424556 -0.12218
秦 0.322808 0.190735 0.300942 0.000456 -0.169437 0.67512 -0.068541 0.616605 -0.769736 0.156919 0.202236 -0.549264 -0.57326 -0.335676 0.066973 -0.28756 0.028219 0.185961 0.010692 -0.762531 -0.237878 -0.114609 0.597039 0.300487 0.190003 0.084098 0.099015 -0.556425 -0.394123 -0.055274 -0.195835 0.123771 0.408201 -0.175746 -0.393199 -0.232446 0.125479 -0.024184 0.109229 -0.122665 -0.129859 -0.139709 -0.21006 -0.147832 -0.190829 -0.317567 0.071497 0.491832 0.143516 0.162115 0.201954 -0.102243 0.654833 -0.375166 -0.278598 -0.181388 0.122262 -0.065255 -0.133223 0.296647 -0.219498 -0.070714 0.304503 -0.540276
峨 -0.892394 0.674618 -0.817762 0.281427 0.378127 -0.446299 0.265827 -0.291078 -0.265061 0.506229 -0.14114 -1.03333 0.407997 0.429491 0.194221 0.083513 -0.171639 0.28058 -0.657497 -0.53054 1.23801 -0.064033 0.823707 0.695809 0.92685 0.221084 0.509494 -0.291445 -0.720569 -0.262354 -0.125027 0.113365 -0.268759 -0.048564 -0.82108 0.016135 -1.21893 0.117938 -0.214131 0.201412 0.011111 0.355912 -0.554537 0.619501 0.053928 -0.043726 -0.133702 0.641075 -0.152813 -0.245951 0.295543 -0.595835 0.305584 0.130853 0.656388 -0.099681 -0.757097 0.226539 0.034227 0.042281 -0.799333 -1.00249 -0.275165 0.368559
k -0.360664 -0.74571 0.088619 0.025178 0.170843 -0.545125 0.408154 -0.632144 0.256509 0.089173 0.245353 0.167276 0.378049 -0.352759 -0.585794 -0.117415 -0.052693 0.010399 -0.356188 -0.099884 -0.555605 1.16931 0.324176 -0.574544 0.179437 -0.065034 0.010346 0.037393 0.165733 0.123729 0.4141 -0.33325 -0.051734 0.606242 -0.271023 -0.141301 -0.945165 0.115215 -0.357781 -0.340976 0.623331 -1.02588 -0.072785 -0.039173 -0.790422 0.790053 -1.15143 -0.390234 0.264598 -0.184318 -0.155862 -0.000392 0.152151 -0.307005 -0.420521 0.852927 -0.139166 0.416822 -0.8902 0.346533 0.537304 -0.270676 0.673338 0.120888
括 -0.092771 -0.1505 0.25821 -0.044792 0.354929 -0.170629 0.11283 -0.432438 0.210997 -0.16921 -0.17708 -0.166198 0.150902 0.134388 0.12523 -0.289383 0.425382 -0.183571 0.006059 -0.020637 -0.601867 -0.076751 0.085763 -0.059392 -0.451493 -0.095322 0.104274 0.339909 0.044362 -0.181729 -0.052416 0.216614 0.137349 0.229725 -0.405755 0.220129 -0.079036 -0.198608 -0.081423 -0.129114 0.310159 -0.456295 0.127783 -0.18264 0.085669 -0.549681 0.186773 -0.222697 -0.093509 0.116675 -0.004713 -0.008509 0.285909 -0.306801 0.389677 -0.014696 -0.418669 -0.235575 0.637485 0.045426 -0.279023 0.142827 0.415733 0.077475
景 -0.064894 0.044311 0.405272 -0.497865 0.173534 -0.334729 -0.07231 0.401172 -0.057315 0.326802 -0.535481 -0.337782 -0.126695 0.136913 0.178258 0.091288 -0.106046 -0.238143 -0.226068 -0.123115 -0.184832 0.064978 0.090618 0.206303 -0.054727 0.013073 -0.050468 -0.304601 0.074142 0.064864 -0.985898 -0.223995 0.269917 -0.149284 0.025394 -0.008062 0.26731 0.278753 0.276951 -0.17834 -0.216651 0.295122 0.025386 0.259478 0.037737 -0.044379 -0.620333 0.181599 0.343085 -0.045608 0.043457 -0.050907 -0.339394 0.736935 0.373224 -0.387942 0.044117 0.347991 0.47549 -0.130597 -0.120643 -0.248039 -0.536583 -0.018719
诲 0.460884 0.299306 -0.113157 -0.330552 -0.742863 0.593532 0.341368 -0.419607 1.0265 0.566649 -0.573204 -0.376944 0.519558 0.209209 1.05372 0.025172 -0.330458 0.262563 0.014598 -0.519141 -0.947255 -0.464748 0.271784 0.003397 0.679692 -0.022965 0.186557 -0.224513 0.505586 0.723228 1.33302 0.003419 0.764512 -0.229098 -0.123089 0.52827 -1.27943 0.221076 0.522404 -0.285724 0.528034 0.511269 -0.03352 -0.756908 -0.128361 -0.14354 0.741239 0.435298 0.236549 -0.205708 0.601982 -0.518146 -0.251957 -0.178288 0.737769 -0.135847 -0.698482 0.258149 -0.310706 -0.124524 -0.53761 0.454462 -0.551452 -0.154064
滴 -0.165236 -0.883571 -0.936223 -0.196116 -0.079255 0.518388 0.22142 -0.445175 0.506183 -0.076883 -0.033403 0.076421 0.643222 -0.031329 -0.098867 -0.389042 0.539992 0.575218 -0.791212 -0.446873 0.551957 0.352949 -0.655029 0.045243 0.070577 0.454922 0.659938 0.164062 -0.243016 0.055634 -0.647335 0.173115 -0.564067 -0.266903 -0.232595 -0.153563 0.660594 0.40006 -0.383219 -0.087116 -0.499629 0.327285 -0.698225 0.116095 -0.46924 0.210644 0.151113 0.426334 -0.060399 -0.624821 -0.487387 -0.103196 0.080456 -0.10155 0.413722 0.175151 -0.566002 0.194833 0.219554 -0.286715 0.207116 -0.025023 0.069445 -0.472453
凶 -0.100566 0.256572 0.00165 0.10675 0.30257 -0.220171 0.148656 0.593309 0.249449 -0.264332 0.273314 -0.293032 -0.366511 0.524447 -0.485815 -0.554019 -0.854867 0.088396 0.283421 0.193271 -0.205376 0.541793 -0.638251 0.652264 -0.145502 0.867408 -0.012345 0.918619 0.095933 0.290966 0.014801 0.667355 0.798315 -0.826068 -0.1434 -0.33781 0.128353 -0.34494 0.988769 -0.741725 -0.463471 0.583577 0.251115 -0.132749 0.009814 0.675143 0.200695 0.062802 0.459755 0.074158 0.002389 0.706289 0.016697 -1.10343 0.016599 -0.07909 -0.635806 -0.926594 -1.01088 -0.097404 0.309846 -0.100121 -0.280552 -0.687763
铸 0.149152 0.027889 0.641408 -0.55897 -0.364469 0.411102 0.020541 0.276164 0.142883 -0.274972 0.740697 0.117023 -0.00289 0.539059 -0.147319 -0.374782 0.295495 -0.345324 -0.228813 -0.336157 0.499848 -0.657813 0.250432 -0.370875 -0.467987 -0.228156 -0.297641 0.035188 -0.148157 0.078599 0.565524 -0.001814 0.729243 0.249065 0.109493 -0.243635 0.188892 -0.171755 0.369675 0.032952 -0.43962 -0.517547 -0.401606 -0.810879 0.399547 -0.180254 0.748272 0.255834 0.650649 -0.388609 0.018436 -0.499508 0.288708 -0.011121 0.372523 -0.090063 0.207395 -0.150134 -0.492502 -0.057864 0.146866 0.296827 0.024744 -0.352136
须 -0.67878 -0.220009 -0.221283 0.318198 -0.49391 -0.151645 -0.095737 0.116734 -0.268812 -0.360005 -0.099032 -0.148214 0.332331 0.460166 0.364126 -0.716586 -0.507331 0.076809 -0.726121 0.171397 0.094695 0.046138 0.010914 -0.100883 0.295823 0.292825 0.078529 0.009648 0.344555 0.106053 -0.266105 0.320748 0.24485 0.183545 -0.206985 0.598526 -0.28201 -0.300504 -0.516201 0.982011 0.340751 0.175954 -0.191407 -0.367818 -0.14646 -0.025201 0.120826 -0.887846 -0.196635 0.170149 0.108738 -0.228929 -0.05338 -0.190549 -0.262486 -0.506264 -0.235308 -0.07963 -0.333493 -0.428192 0.163089 0.214041 -0.019611 -0.063909
基 -0.31224 -0.028596 0.233476 0.047645 0.000322 -0.223748 0.220593 0.186388 0.440543 -0.081761 0.734331 0.010931 -0.303005 -0.330074 -0.175229 0.31055 -0.211973 -0.372442 0.412398 -0.030268 0.133685 -0.010809 0.064185 0.149061 -0.161099 -0.071308 0.255066 0.275649 -0.121502 0.482652 -0.126706 -0.007453 -0.451079 0.269697 0.415781 0.179918 -0.021157 -0.237824 0.266843 -0.057959 -0.278158 -0.202751 0.635005 -0.055614 0.048953 -0.357286 0.056555 -0.221319 -0.229834 0.729654 0.260908 -0.093481 -0.131129 0.513881 -0.400965 0.239792 0.479686 0.088361 -0.040917 -0.064174 -0.230105 -0.101591 -0.18985 0.442638
孽 0.524467 0.342923 -0.080235 -0.347268 0.669118 0.111407 -0.793784 0.360752 0.218619 0.873477 -0.809171 -1.00985 -0.267589 -0.264741 -0.223534 -0.204134 0.681043 0.648201 -1.54515 -0.552988 0.278383 1.17908 -0.174793 0.456557 0.223971 -0.385008 0.975727 -0.875557 -0.495357 0.570929 -0.213173 -1.13842 0.028498 0.674778 -0.984973 0.118096 0.134568 -0.449384 0.542609 0.587292 0.03083 -0.349921 -0.650195 0.019482 0.088903 -0.046374 0.340078 1.18178 0.139358 -1.18585 0.930421 -0.002193 -0.327401 1.36858 0.882335 0.475643 -0.496905 -0.37847 -0.619823 -0.386091 1.90553 0.691709 0.988456 -0.515873
广 0.304367 0.011096 -0.088105 -0.333049 0.019195 0.001546 -0.028694 -0.009967 -0.314555 -0.27887 0.047012 0.37443 -0.006415 -0.122701 -0.143444 -0.014237 0.021529 -0.237258 0.060508 -0.166045 -0.459303 -0.139718 0.531698 0.519266 -0.286483 0.327247 -0.031903 -0.489474 -0.522327 -0.104031 -0.209463 0.568125 -0.081926 0.035312 0.409967 0.318373 -0.118062 0.099596 0.165102 -0.009802 0.063603 -0.378404 -0.405446 0.302997 -0.0661 -0.073269 -0.163241 -0.017008 0.164938 0.334251 0.207669 0.101915 -0.283822 0.265556 0.069376 0.108943 0.514572 0.038999 -0.073487 -0.208686 -0.40157 -0.361876 -0.061179 0.098086
巾 0.136857 -0.447806 -0.401257 0.366621 -0.196992 0.23354 -0.407674 -0.095527 -0.509429 -0.875618 0.768978 -0.37403 -0.128633 0.326518 0.147281 0.044198 -0.296944 0.177194 0.91553 0.897881 1.45471 -0.085793 -0.649419 -0.161783 0.128513 -0.033873 -0.409246 -0.256562 -0.204321 -1.13258 0.478244 0.338514 0.550052 0.24872 -0.58056 -0.001745 -0.14268 0.839083 0.388225 0.544791 -0.141647 -0.654997 -0.117246 0.330363 0.403352 0.233553 0.186191 -0.240594 0.328011 -0.35197 -0.350917 -0.492057 -0.117331 -0.169955 0.014738 -0.392565 -0.810949 -0.464205 -0.276466 -0.086312 0.445758 0.200285 -0.524708 0.504488
伪 0.507879 -0.026462 -0.589236 0.353289 -0.097347 -0.340621 -0.065857 -0.485601 -0.163303 0.732077 0.40349 -0.158297 0.095888 0.08926 -0.185472 0.280607 -0.098323 -0.412296 -0.763895 0.03311 0.67103 -0.042659 0.234512 0.51247 -0.336979 -0.305654 0.366816 -0.43026 -0.35639 0.204627 0.557002 0.35773 0.100243 -0.06617 -0.662237 -0.178653 0.144735 -0.412225 -0.318316 0.18977 0.272068 -0.384566 0.071032 -0.068359 0.205539 0.035782 0.832997 -0.519332 0.393609 -0.345637 0.404227 0.34118 0.017721 -0.437198 0.11184 0.760101 -0.172105 0.15778 0.031804 -0.263703 0.352087 0.756351 -0.180484 -0.692206
殇 0.574139 0.812461 0.317461 -0.205676 0.521868 0.195841 -0.518388 0.465774 1.19328 0.821467 -0.288593 -0.86151 -0.783564 -0.325062 0.770598 0.450769 -0.530992 0.344141 -0.396528 0.07853 -0.192791 0.100372 0.664755 -0.606078 -0.137993 -0.447704 0.458193 -0.606774 0.400627 -0.090715 1.09465 -0.303419 -0.047367 -0.171025 -0.541762 -0.741104 0.292955 -0.348691 -0.002651 0.403211 -0.936238 -0.345869 0.144943 -1.83386 -0.316621 -0.036775 0.143797 0.445981 0.508935 -0.588859 -0.352912 -0.028524 0.384059 -0.032292 -0.019096 -0.296538 -0.189105 0.499766 0.241013 0.173165 0.04196 -0.19445 -0.225215 -0.56898
僧 0.410235 -0.244446 0.158954 0.037074 -0.038328 -0.436721 -0.150379 0.07783 -0.139745 0.109822 -0.161532 -0.985846 -0.398297 -0.530501 0.385079 0.381166 -1.2088 0.101483 0.273873 0.338846 0.824313 0.217717 0.309339 0.396673 0.116862 -0.221107 -0.357177 0.03102 0.325431 -0.341657 0.182244 0.60186 0.266018 -0.094496 -0.16372 0.035949 0.115302 0.507371 -0.068891 0.014242 -0.048421 0.093643 -0.523605 -0.24999 -0.016556 -0.121859 0.423633 0.429166 -0.403908 0.196595 0.731353 -0.469613 -0.137819 -0.208001 -0.163854 -0.046316 -0.401766 -0.382841 -0.31794 0.190607 -0.005441 -0.144516 -0.055777 0.002563
沉 0.35001 0.44872 0.15561 0.278703 -0.507276 -0.330843 0.292182 0.201413 -0.272864 -0.179648 -0.037329 -0.046445 0.31938 0.224593 -0.049239 -0.106308 -0.302185 -0.144362 -0.347526 -0.541946 0.024751 -0.297195 0.495716 -0.036107 -0.01845 -0.501325 0.097549 -0.076331 -0.312414 0.904637 0.210125 -0.510754 0.194799 -0.5497 -0.19858 -0.451064 -0.422823 -0.003905 -0.172764 0.2477 -0.03216 0.003659 -0.205908 -0.114629 0.248357 0.040096 0.380927 0.205116 0.344128 -0.569623 -0.787424 0.400167 -0.084391 0.428972 -0.118951 0.595872 0.490162 -0.064107 0.453877 -0.356124 0.513167 0.235734 -0.085888 -0.389552
醋 -0.141219 -0.465312 -0.280321 -0.301677 -0.389448 0.037158 0.140405 -0.706123 0.057671 -0.37358 0.322713 -0.404301 0.039435 -0.050541 -0.341137 -0.373282 -0.222487 -0.016947 -0.055631 0.747745 0.875541 0.038259 -0.236373 -0.983139 -0.08079 0.259869 0.719073 0.355294 -0.636738 0.002375 0.690854 0.180748 0.183435 -0.238103 -0.298561 -0.424227 0.579279 0.379747 -0.25145 -0.415113 -0.200347 -0.082427 -1.11859 -0.042903 0.361481 -0.311522 0.417131 -0.471345 -0.011578 -0.075804 -0.57735 0.299406 0.845002 0.57714 0.051483 0.532072 -0.20318 -0.296509 0.227253 0.535755 -0.084793 -0.326263 -0.604825 -0.255853
渊 0.560886 -0.208062 0.188978 -0.478875 0.249763 -0.242602 0.957502 -0.088213 0.195124 0.27806 0.121303 -0.817745 0.622967 0.073019 0.240792 -0.779525 -0.064008 0.387843 0.30841 -0.269397 0.603296 -0.328343 0.477438 0.063877 -0.06453 0.40856 -0.32454 -0.241111 -0.249761 0.255364 -0.493828 0.336638 0.171171 -0.143192 -0.499064 -0.347486 0.39795 0.034905 -0.151679 0.159597 -0.81489 0.070624 0.180329 -0.416474 0.133304 -0.000207 -0.275436 -0.007994 0.513312 0.604933 -0.451829 -0.223324 -0.040586 0.520016 0.111367 0.35913 -0.468583 0.396148 -0.267958 0.238104 0.489127 -0.207699 -0.214554 0.142236
近 0.047661 0.00575 -0.083673 0.297717 0.079984 -0.406676 -0.10213 0.427137 -0.063789 0.118479 -0.164401 0.35791 -0.262277 -0.376263 0.03666 -0.057385 0.481501 0.05901 0.221831 -0.167469 -0.101045 -0.334261 0.18957 0.240051 0.197413 -0.133381 0.00492 0.341458 -0.136922 0.084802 -0.327843 0.201013 -0.190847 -0.055507 0.282056 -0.065479 -0.018633 0.177186 -0.186271 0.152308 0.175299 -0.256198 0.020325 0.042843 0.218004 0.012151 -0.264225 0.074586 -0.377649 -0.165768 -0.045294 0.125959 0.02199 0.163605 0.447089 0.004812 0.139806 -0.017598 -0.077043 -0.268975 -0.270577 0.183612 0.567712 0.110848
后 -0.190606 -0.31326 -0.439517 0.507029 -0.380642 0.163428 0.007898 0.407966 -0.060509 -0.173645 -0.212703 0.564698 -0.123219 0.452468 0.516393 0.242139 0.199045 -0.055255 0.088383 0.035615 -0.048943 0.083278 0.316543 -0.327602 0.171037 -0.040548 -0.256205 0.113882 0.362342 0.013199 -0.354705 0.231527 -0.196464 -0.554952 0.272306 -0.334191 0.144261 -0.197383 -0.185612 0.210941 0.080602 -0.197712 -0.037195 -0.26308 -0.100612 -0.253923 0.093923 -0.122715 0.148403 -0.015197 0.51122 0.319311 0.11332 0.001756 -0.041596 0.03484 0.047621 0.131306 -0.014249 0.260131 -0.012522 0.064114 0.494265 -0.033964
碑 -0.301442 -0.292653 0.288168 0.453004 -0.102614 -0.058367 -0.014253 -0.479624 0.392186 0.572118 -0.084749 -0.16104 -0.145227 0.259623 0.577848 0.03867 -0.71768 -0.184256 -0.27764 0.055119 0.420082 -0.477518 0.241484 0.045951 0.602971 0.656006 -0.816363 -0.481206 -0.508494 0.336008 -0.266994 0.401993 0.465973 0.277418 -0.030603 -0.237507 0.114648 0.626516 -0.069035 -0.800256 -0.237932 -0.47472 0.117749 -0.372026 -0.226315 0.231712 0.165293 -0.139434 0.70317 -0.654612 0.011664 0.072774 -0.240034 0.513406 -0.007901 -0.256071 -0.436735 0.176327 -0.280006 -0.472251 0.42004 0.036573 -0.658337 0.353
餐 -0.208931 -0.237667 -0.317293 0.066365 -0.138346 0.385247 0.278865 -0.421494 -0.371292 -0.005244 -0.205256 0.048197 -1.1196 -0.452794 -0.48631 -0.005604 -0.72912 0.077159 -0.408221 0.090532 0.538723 0.325333 -0.256076 -0.21224 -0.778128 0.911425 -0.169042 0.841962 -0.057698 -0.42625 -0.229133 0.107291 0.249525 0.061096 0.06265 -0.073716 -0.003506 0.349818 0.076523 -0.355309 0.001444 0.294794 0.008318 0.067055 0.403599 0.00414 0.089056 -0.359629 -0.074346 -0.011579 0.03956 -0.035447 1.0008 0.078049 0.239535 -0.601673 0.438829 0.153239 -0.093878 0.483104 -0.710255 -0.087665 0.056613 -0.350386
蚂 0.637554 0.542987 0.234012 -0.213319 -0.57395 0.435395 -0.139334 -0.370114 -0.886783 -0.366273 -0.371773 -0.993273 0.21038 -0.633809 -0.238663 -0.790965 -0.13865 -0.358188 -0.666278 -0.232274 1.02331 -0.108524 -0.399249 0.332971 -0.134252 -0.389678 0.310724 0.550474 0.256596 0.443594 -0.333213 -0.06446 -0.516299 -0.161355 -0.453842 0.741568 -0.046242 0.792373 0.162046 -0.072235 0.095134 -0.05042 -0.19388 -0.444007 -0.679992 0.320673 0.105991 -0.200829 1.19454 0.382336 -0.827278 -0.498985 0.391047 -0.0647 -0.11491 0.293151 0.418966 -0.673328 -0.218736 -0.501923 -0.000576 0.99074 -0.22572 0.304471
底 -0.238433 -0.003549 -0.1628 0.56122 -0.27474 -0.807888 0.297112 0.117506 -0.177571 -0.446394 -0.167513 -0.0638 -0.059019 0.408025 0.23404 0.199394 0.08961 -0.442847 0.071467 -0.091414 0.165124 0.215311 -0.255631 -0.329003 0.788868 -0.079173 -0.113996 0.095831 0.28366 -0.001858 -0.362031 -0.346547 0.168385 -0.104141 -0.33981 0.050655 0.501303 -0.386879 0.258025 0.038454 -0.620006 0.140687 0.337126 -0.18696 0.204959 -0.085094 -0.54298 0.313475 0.194508 -0.0528 -0.137175 -0.297427 0.096684 -0.252292 -0.285256 0.423844 -0.04091 -0.175703 -0.005911 -0.214576 -0.241043 -0.143625 0.353706 0.5378
４ 0.256493 0.246023 -0.493138 0.402047 -0.196356 -0.489689 -0.156636 0.114239 0.578484 0.153677 0.352742 1.08749 -0.326259 -0.139364 0.003276 -0.047594 0.200509 -0.115726 0.32959 0.023959 0.620598 0.135531 -0.366441 -0.238521 0.305727 -0.039956 0.802713 -0.235103 -0.09634 0.484919 -0.717207 -0.288081 -0.270905 0.520849 0.733395 0.259277 -1.32093 0.288103 -0.320577 -0.088651 0.803294 -0.248413 -0.062329 -0.339176 1.3964 0.281624 -0.62658 0.771895 0.297918 0.624359 0.45412 0.56569 0.584132 -0.144644 0.476195 0.021947 0.388261 -0.564643 -0.419421 -0.133731 -0.441306 0.508028 -0.20569 -0.230395
怖 0.768233 0.934687 -0.055658 -0.839819 1.36616 0.129617 0.26743 0.99724 -0.249232 0.018254 -1.81128 -0.32358 0.751905 0.16753 -0.880387 -0.565221 0.408834 0.039871 -0.316595 0.162992 0.672614 -0.835891 -1.11274 0.286538 -0.651811 0.474296 -0.433506 0.206283 0.927433 -0.355286 -0.429829 -0.222223 -0.059258 -0.114041 -0.123895 -0.668165 -0.743936 -0.337539 0.411111 -0.588683 -0.06088 0.43676 0.537063 0.52788 0.776395 0.81696 -0.089961 0.317046 0.100379 -0.402631 1.2524 -0.320369 -0.82478 -0.632225 -0.883186 1.29388 -0.15302 0.025735 0.552973 0.969461 -0.425398 -1.24164 0.219158 -0.877793
蒙 0.415895 0.237499 -0.19866 -0.133702 -0.133196 -0.204542 -0.044931 -0.224775 0.086172 -0.262443 0.204198 -0.042936 -0.503912 -0.048886 -0.355135 -0.189587 0.053224 -0.577531 0.296274 -0.614257 -0.477848 -0.416095 0.488109 0.345033 -0.397121 -0.305346 -0.372899 0.105052 0.073539 -0.153138 0.088387 -0.028491 -0.160115 -0.218223 -0.184917 -0.541775 0.045586 0.247461 -0.268082 -0.271918 -0.099509 0.116139 0.109209 -0.045411 -0.270849 -0.248327 0.095163 0.157363 -0.103762 0.222888 -0.005056 -0.8206 -0.314663 -0.510913 -0.530494 0.338934 -0.044926 -0.349729 -0.174328 0.027176 -1.00234 0.073145 -0.437906 -0.086454
攘 -1.01044 0.586041 0.205668 -0.72238 0.357441 0.715426 -0.601734 -0.725139 -0.071687 0.284109 0.279442 -0.337973 -0.44027 0.384531 0.757728 -1.08067 -0.169188 0.888067 0.782024 1.04261 -0.058305 0.002311 -0.175967 0.613827 -0.185281 -0.577632 -0.20326 0.309545 0.242361 0.518729 -0.570437 0.950481 -1.76588 0.130281 0.256709 0.775408 0.477164 1.18452 0.542335 -1.27916 -0.055881 1.4773 -0.602065 0.867367 -0.186997 1.28002 0.133729 1.10204 -1.36623 -0.816207 0.776983 -0.400219 -1.42056 -0.3587 0.895245 -1.11905 -1.03805 -1.11044 0.115892 0.673426 -0.68735 0.219006 -0.748762 -1.15324
售 0.344639 -0.396462 -0.254214 -0.006505 0.358105 0.021471 -0.008763 -0.29831 -0.078343 0.095654 -0.319801 0.809364 -0.037398 -0.251882 -0.105069 -0.335612 -0.205096 0.025345 -0.286836 0.142929 0.033693 -0.082505 -0.677957 -0.594912 -0.471896 -0.019542 0.513088 -0.105847 -0.33395 -0.544612 -0.588835 0.114469 0.139642 0.247797 0.355118 -0.154449 0.822371 -0.229886 -0.184717 0.164287 0.790801 -0.496725 0.701582 -0.273005 0.016244 0.130992 0.220669 0.246428 0.254222 -0.654591 0.05915 0.363427 0.217206 -0.320527 -0.002784 0.137494 0.215335 -0.122629 -0.14404 0.181144 -0.461209 0.026966 0.224671 -0.210573
辟 -0.439315 -0.066451 -0.085817 -0.217492 -0.705561 -0.199832 0.63229 0.403141 -0.12639 -0.879155 -0.676422 0.469193 -0.124742 -0.586361 0.125224 -0.140257 -0.506822 -0.917265 -0.223835 -0.364917 0.489655 0.518033 -0.153535 0.253792 -0.941595 0.115246 0.11731 -0.360886 -0.544751 -0.207808 -0.029373 -0.042526 -0.551775 0.443403 -0.142986 -0.10516 -0.030918 0.059855 -0.062583 -0.283236 -0.118322 -0.097453 -0.626671 -0.246023 -0.717333 0.076256 -0.105933 -0.256867 0.199614 -0.608698 0.325822 -1.02563 -0.042244 -0.466191 0.475638 -0.178755 -1.2793 -0.391243 0.264033 0.572349 -0.256445 0.332148 -0.279748 -0.198864
厄 -0.258514 0.396869 -0.08714 -0.603964 -0.11136 -0.090952 -0.204694 -0.386122 0.216194 -0.35012 0.217645 -0.510607 -0.553547 -0.019185 -0.775809 0.021719 0.403252 0.517579 0.104813 -0.449221 -0.105033 -0.116689 0.079387 0.690583 -0.410923 -0.080812 0.484963 0.057421 0.384522 -0.06645 -0.030306 0.310935 -0.319995 -0.073955 -0.866047 -0.527468 -0.200051 -0.214038 -0.441749 0.482407 -0.166335 -0.107429 0.370123 0.036731 0.12066 -0.072875 0.368425 0.466937 -0.268169 0.114228 0.342633 -0.121222 -0.367237 -0.267317 -0.853252 0.234033 0.016168 0.443373 0.173116 0.268721 -0.56533 -0.150583 -0.34777 -0.10451
＇ 0.166463 0.058904 -0.246928 0.226612 0.418524 0.586173 -0.312484 0.123147 0.575807 0.772441 0.128935 0.352031 -0.531553 -0.370751 -0.376856 -0.50141 0.048155 -0.163253 -0.164877 0.315813 0.129804 -0.064047 0.046656 -0.135361 0.320349 0.15247 0.048871 -0.082988 -0.336536 -0.142274 0.366863 -0.178607 -0.289606 0.182531 -0.304962 0.156355 -0.265583 0.277845 -0.229415 0.061327 -0.424739 0.349091 -0.060366 0.346918 -0.028496 0.107961 -0.530155 0.316061 0.158864 0.060234 0.219635 -0.154933 -0.040466 -0.299976 0.350302 0.287449 -0.314762 -0.004682 0.064655 -0.347435 0.13653 0.262899 0.078779 0.123347
